-0.25809799498344554
1.8080070485654482
-1.3315115267512851
1.3046101042452345
-0.29783787926714506
1.9839445394933692
-0.33774979145497097
-1.8420035540085793
-0.9985512970220431
0.2230204702159189
1.0300096607638882
0.636467910790007
-1.330230752761599
-0.4409814283322857
-0.9010323755637522
-0.4192823403703959
1.263336427421922
-0.07074007129988084
-0.1215200077648023
-0.11309834263533258
-0.1817626932601004
0.9825761452810475
-0.9013883640305763
0.7703634962618924
-0.6100784228263917
-0.012683473772946131
-2.022977182827973
0.22114261101313437
0.9279380113173283
0.15480729781789193
0.6690271036236681
-0.1359364526777736
0.3862080795583139
0.2475831778065044
-0.5196599246942085
0.2228286111143368
0.8089749742611307
0.5462319854206678
-0.5559531848813104
0.9652959191371258
0.8976366146498973
1.2182068774448784
0.7226571301050253
0.12291273391968535
-0.840054563844715
0.6595706259315526
0.8916818931400339
-1.49479695248023
-1.280102124875598
-1.007867515399435
0.327834130323989
0.035566064136045406
0.7506297032606137
1.2037896194764122
1.0428667259647264
0.6806268814450425
0.2928896005726089
0.36460912214694946
-1.1201396405534767
-0.5387854592406895
-0.029422125795915768
-0.11634899628416814
-0.6141270844831723
-1.3114765068843122
0.8377086482545278
-0.21949766945704405
-1.5678975160403283
-0.7472032467117949
0.1878950593470552
0.47077899423861075
-0.17498302182685932
0.9887846900214095
1.1132959694380473
0.3406217950619364
-0.28787321116934983
0.38728297493441
-0.5647867475718862
0.41831325054030677
-0.9081762913897053
-2.420990762104567
0.8719259435062864
0.4356397176356281
0.6972356227906834
-0.58888968925958
-0.002537681477610317
-2.1746316555038425
-0.23855115109368136
0.26692150755711336
0.9500141224563872
0.5929133982910351
-1.8978292800140975
1.3911906155889775
-0.33084218591237236
1.1758346861786775
1.018094211448785
-1.0539880038012173
-1.1186341682544012
0.06302559002032898
0.22551044736543974
-1.228237287510743
-0.10008590619746605
0.65022576246016
1.563310570952996
-0.25154514149157525
-0.16411026311740257
-1.5258107398653475
0.979505022232557
2.390650029671467
-2.0190517059882827
-0.7988170097940026
1.222177466331008
-0.1844969825967807
1.076354608567369
-0.31500026494286204
0.1291999410801022
1.856192787174405
-2.1003350595503654
0.3723712511159425
-0.41639019265635985
-1.2110525661933442
0.3661471360483485
-0.5535750472271761
-0.6282531249623529
-0.018440948444467725
0.9788679711956143
0.4016620846961417
-1.4937235984453903
-1.6118798518952657
-0.12856321742563914
1.4363331640705983
-0.4974950590496992
-0.6300421359038932
-0.8018334862335643
-0.41767259204137763
0.04639361066738851
-1.0991702272175388
-0.6218955565590106
-0.005869895444047618
1.013943270128839
-0.3383102015507477
1.0407487877371124
0.5451429935578611
0.0706172290933752
-0.6715516513394363
-0.34144285612354547
-1.5155662372907084
-0.4005122558999398
0.1137729151357793
-1.534744218248014
-0.8330811830228355
-1.147771002393395
-1.5897308873646399
-0.3684758966803561
-1.724050107429829
1.2829853378505574
-0.13350405879789368
0.06429098780771009
1.373652854907063
-0.6968048895107125
-1.6684766328781864
1.2404505398920629
-1.0815259417200904
-0.5133801966768401
1.7912367053604101
-0.8742877599892931
0.3660543969809573
-0.36859405234222625
1.0031121825138338
2.648701241600402
0.650695657964311
0.6121593203747271
0.2077476772459524
-1.6478340337865365
-0.38467586813212
0.6773486608031654
-0.16345919517084606
-0.6540320114469628
-1.6124887219134039
0.35081838282677563
-0.13863061485458378
0.4109508824176776
0.38888205686631827
0.6972259305293341
1.0004534621655785
-1.5408095246855755
-0.21972742062306877
0.7618778446515755
-0.8027908373793351
-0.6924470381541615
-1.0449550836435058
-0.5681110924420715
0.8329707659779075
-0.1339455030424545
0.672984604865934
0.3094619829349106
0.48810216993988387
-1.0405698193587596
-2.083875737949601
0.16144679726666267
0.3040671072306165
-1.1021892264441246
1.8856005145007158
-2.0026223598683868
0.07951107560126526
-0.9305619745667646
-1.2703291917217965
0.27729375428960706
-1.709394908810254
-0.2839927736053964
-0.7050394350923928
-0.03135075386034247
0.8464608363353989
-0.1705602160118861
-0.153355290174268
-1.406259925149778
0.23685326772188864
-1.335769708246051
0.00472711635785312
0.08523398948063951
-0.11660877686985725
0.6427430605561409
0.22870955954666902
-0.45259976276058306
-0.60678706287115
0.8268997411109251
-0.2911911323734099
-0.43678218648139755
0.409886838045867
0.8600936869900742
0.8776380699933342
-0.4138344276381089
-0.6300703213919738
-0.7256135154379342
0.044093304306909255
0.16070259060500494
-1.5636415490582987
0.259641041128549
0.34314991048951476
0.4652151941362242
-0.3494604549158281
-0.9926591250451249
-0.11760517740672832
-0.4455641643406884
0.043118058001493764
0.8938840151843536
-0.2194407994988368
-0.23668326796760666
0.7477141195076811
-1.2966238009194246
-1.8806605702464023
-0.6110460323893717
-0.03701226383157319
1.0614197427427599
0.9447448217809078
-0.5169292045666587
0.14025587580839569
0.3597033529958473
0.6977757717707929
-1.1946396307665428
0.5189606242462974
1.4557388453556357
1.9861862730814719
1.2343228837252505
0.47238321855731963
-0.2332822135470458
0.8780300042496705
-0.8203449112535005
-0.9633469718858538
-0.8466200817209766
-0.12111096441593183
0.18405446415956456
0.7324084424559043
1.6298003340476985
-0.7005990212214221
1.7449603309700463
1.146223817484332
-1.3925226563317938
-1.9642382436703674
-0.34222437503560676
-0.21681147695252284
-0.14074516452679192
-1.229913994761919
-2.1130625449955973
-1.921370497224359
0.38337220423396057
0.39980978035664017
1.3577942461209398
-0.4497400337430978
0.8012017566867908
-0.2340788441839727
0.016972988864272176
0.06709460796659097
0.33038117403182937
0.3540535945833119
0.5253991132208604
-2.577555258975295
-1.834734176575208
-0.18499943160309001
0.6062591335114806
1.1376876344554017
0.35977772079098047
-1.1116820397573735
-0.15061378199769984
-0.6267056589097222
1.1816720763718074
0.0891378676853862
-0.028010012627234765
0.347683281527134
-0.2676709101717574
1.5150683529399664
1.267014984912668
-2.307364037710777
-1.848852548950299
2.3691062998334704
-0.32464352761342286
-0.04521842226661502
-0.8101519474333199
0.4661989332635685
0.8979823372401359
2.600672604903451
1.2471434878013843
1.6345266642189695
1.8158112764446261
-0.6956753580287649
-1.4962449738437105
-1.12575886707897
2.6645114467208666
1.2724691791074534
-2.17330507739974
-0.6534031435810572
-0.3024384206237832
0.5475043628134003
0.11126427455147558
-1.537906865927017
0.31023244743809225
1.175246072358552
0.1414588915301807
0.46958043247450176
-0.9131842966672252
0.6476911480046479
-0.5585692497231334
0.6972659443642448
-0.2122734193271794
1.0699350175066917
-0.09331402735228546
-1.5604829477219753
1.0739216033652956
0.2052143793068854
1.2031120411210747
0.6717220498287494
-1.7523124403274468
1.8740400484373712
-0.010631503106251263
-2.185396241570263
-0.5130086419276373
-1.5701865983007222
-1.6876806161594025
0.2848169756491671
2.0576289861661317
-1.1999627881585984
-2.145441923445443
0.8933075854716632
0.17939214264841286
-1.2617944884684413
0.017666954594411113
-0.7818123435083264
0.26917096081510944
-2.473955717922318
0.9479375494080556
0.49315894264673793
-1.2904008219210066
-0.8240092805666983
0.6300789391542043
0.6300575514295345
0.8743463748116886
0.9624831913883023
0.12191597518560095
1.6324476645261263
0.5427290470845463
-0.8953402139894824
-0.9932922705416191
0.09039797502410513
-0.5630916581364002
0.2871530504093245
1.662794977014563
-1.9920885926925864
-0.036138913105754095
-0.3736291868509151
0.2022696181116928
1.8499651467879128
0.8190233623064387
0.6527519232451084
-1.795604713840387
-0.044205858515577276
-0.19194841901638654
-0.6372880611318871
-0.3921911186468487
1.5610372294166002
-0.6715418571780221
-1.1427991201662349
0.9599976627693168
0.908306851334757
-0.6663015577503874
0.5755980365990333
0.31707731105055653
-0.9329991795099142
0.1133652528311702
-0.21150211462726837
0.02281865134406887
0.87542941613092
0.5205588708784321
-0.28154232347427327
-0.152612541766171
0.03447195795267824
0.1794703387597461
-0.020701442438750446
-0.6855385405134684
-0.36547321460458226
0.24605493385050584
-0.7627980704281221
-0.7342646738594337
0.6569544363866533
-1.2353949086330311
-1.2342912043922414
-2.493494148588438
-0.5543304424657823
-0.9871594478000754
-0.07633272136964316
1.4491115628249749
-0.07691780751722092
0.19223441257956542
0.8909137585913918
-1.1041750762219045
1.9228089628047633
-1.3520136758764492
-1.358331434195735
-1.7590071370196276
0.926709479452032
-0.9601033409493083
0.46916987994593656
0.3281594837843454
-0.3663469424251947
1.9962728626449802
0.8845261384978993
0.007219234678382424
-0.07933264670138007
-0.014268249518538932
0.2400120581465729
-0.34219060650803823
0.43102446326107097
0.10547388711590422
0.8506967997214452
-0.35977475162449396
-0.13256941480039797
0.2668329780959021
0.40530430254055305
1.4414927364573598
0.5481739448851131
0.17724152347574876
-0.305896109727678
-0.08382518192321417
0.18647092418367905
1.214592743268492
-7.312084787565176E-4
-1.7480146281381819
-0.7186299354100945
-1.300318464760333
0.23739948045142906
-0.1843611854954613
-0.27746162329431545
-1.1120735657869607
-3.6677171432761435
-1.0610191447533568
-1.2453818442488414
0.35850446028030464
0.5018398625152237
0.5012330995231792
-1.282118666642569
-0.8876961689111721
0.27912906854443553
0.23553698994915234
1.921110590238796
0.45916673631135746
-0.48192909041125204
-0.14022571753895555
-1.6364301094978984
-0.0131959767781277
-0.5591438450036041
-0.2257573107836533
-1.1231302389749298
0.9011151024024204
0.5385262589648042
0.4317694916421183
-0.529741289463274
0.4091601306937423
1.4603501132703025
-0.6186313317586536
-1.128728324352831
-1.020604835214851
-0.7630166522130708
-0.7244290015595025
-1.0456664156813436
-1.2742906561295182
1.1803639391142047
0.010299374982391613
0.09031427148450275
0.6117616423566983
0.7024115500505501
0.5497860798887371
-1.0088692261289325
1.8535104161368128
0.2545104908147296
-0.9558818139943761
0.06008236014675289
-0.4740838124907089
-2.8606833687308497
0.5918643924720326
-0.6632319919830196
0.8143312500974489
-0.9990157071294665
-0.0795390591019588
-0.7719832103282509
0.5914911496060691
0.010191974256735268
-0.3406895463059071
-0.6122591678372907
-0.8848392222600481
1.008108495486708
-0.40843788682772997
1.5380940223870208
-0.008689191054359951
-0.9812047916659921
0.4565444733341156
-1.1769096451996328
-0.33326768127578943
-1.022146581030778
0.7718136388637502
0.23637399324819974
-0.8863654196219646
-0.03205802617775408
0.6219251146996814
-0.6469463590031308
2.3942221725534742
-1.2350041837404981
-0.9286010322860525
0.623298932484045
-0.3747677260373769
0.7673863016425092
2.0956907949444057
-0.6416426165124065
-1.2296363704706512
-0.2993020773135333
2.010095244513645
-0.7751232254438708
0.40503956936123964
1.0360038755894359
0.20190591000001104
0.8515160894411655
-1.7163614640856715
-0.05344752276517117
1.336256691972415
1.5645611553182146
1.2903051147587496
0.757757985807437
1.0085440740065668
-0.2497609250108923
-0.020943341218120776
0.28794840511086817
0.5136026810842725
-0.3489213786739579
0.34796702890144143
-0.9585938588709507
0.40049607203130644
-0.05465625668223595
-0.34501792049432034
-1.0064293246391338
0.3549476095166809
1.6133502936802075
1.420759471382936
-0.4564237260024068
0.3316296821104497
-0.16802502165390976
-0.5054712843550422
0.8540777017497163
-0.7785111690061081
2.1124828726945073
-1.1061162127231894
1.5803418898307136
-1.1345279983979548
-1.322090723232825
0.545204268534796
-0.2717750403551521
-1.2268229260708168
0.8415063802985093
1.8415062573554468
0.5182138535725184
-0.19256690250129815
0.5392340628189352
1.7035679856311432
1.3729556695449139
-0.5915397033665346
-1.3419956189111277
0.27334003495266523
1.032692765661549
-1.9430222354851063
-0.028516671509235158
0.16310466307004232
0.18538158487162787
1.6660737507095817
2.0732561187250784
-0.37551793241499404
-0.8513969805401971
-0.1307778537821058
0.4580864003396324
-1.331044709052545
0.3770361999741818
-0.7855864421664798
1.2463180637333315
0.6524773372384601
2.5109792291438726
-0.7087178934377528
-1.8650722042738543
-1.1695900100654957
-0.12310977083666202
0.259631235260301
-0.7928270133555675
0.9388077757713631
-0.8864499185896418
-0.769486406032217
0.7929577419193172
-0.8389656849579404
1.5695876340316381
0.8248964074042009
0.35493355564589696
0.9053306375803822
-0.46022814125328326
1.600971770011896
0.1334112367624879
1.0096057261104499
-0.10346300699506135
0.056624409006081865
-0.5479710578405048
-0.12768830125605074
-0.05714721936100353
-1.8499175433143284
1.0250424358419106
-0.37158604096320164
0.43951226794314974
0.14252627506645676
-0.26343250028518955
-0.1420480415374777
1.143167465985309
-2.3428222349651175
-0.7575022503945433
0.14051853265902461
0.04956465210372524
-0.46046659506593735
0.013828225686414702
-0.07752802789028101
1.1293116302792607
-0.30442504802797127
0.25282785985639816
-0.5862882410034904
1.4532408696396226
0.2486206825814088
-0.5252111302515613
-1.2304339766307015
-0.1521275909530158
0.4117718103177543
1.0171374905108181
0.2145980702570818
0.10609778226664161
0.8141565304041092
-0.6398647002239843
1.4935659585653502
1.3196414626905189
0.42083773029437327
0.49470419383731096
-0.4535668446573813
-0.9445550966930439
0.12896098167385986
2.1966758307558276
0.2578378769079633
2.608740996701676
-1.844574170300351
1.2962558670983253
1.4099031812507783
0.55345149749246
0.45283784637119134
0.04914445184804542
0.2578345992648815
-0.07641743598163578
-0.8781181823714532
1.2912753313866456
1.028469167671115
1.3466791857856917
-0.28798937348129094
0.8836870812529911
-0.49248705941849114
-1.2214206433983272
2.0029945911506424
-0.23268672452301947
-0.7167070423822539
0.5251773424445113
-1.312705795956984
0.012585645464803619
-0.37507771506812587
-1.3106737680035987
-1.2446870429400403
0.5749731804539815
0.09109676885550322
0.5630546320783418
-1.9298757461076577
0.7554387247096701
0.7062705328674611
-0.35930123719055007
-1.7292696356466477
1.085838170163604
1.4261549809404248
0.12156840921139717
2.788712903497702
0.08216707119646811
-0.5242202091628723
-0.9232421236017042
-1.2709342165771151
-1.275963409052193
-0.33856955516324466
0.4443120011805577
-0.19073884853057407
-0.10002030317189879
0.1614497422447122
-0.5513958284119607
0.9348130809169884
-0.6308224755074751
0.34436409149608155
0.35127483555241185
-0.5925786297726148
-1.07982235268175
-0.20178635447521703
-1.1811787877087665
2.0055583079496397
-0.524378255063771
1.5962577726713005
-0.5023031474696079
-1.2763357946643463
-0.4680946555003889
-0.6394668871580365
0.6795886052604281
-1.5162648387358013
0.9777195246713961
-1.384760537291317
-0.4584412215941192
-0.9004886351884552
-0.8442418191900782
0.28460531137121636
1.1423949713272719
-0.8896391154064105
0.9228638206184512
-0.4324526829197195
0.07962754947332681
-0.7946685402054599
0.13386321521204358
0.10437667191665774
0.7058005022082297
-1.0542425704939433
1.1282007824858613
-0.9734616154999522
-0.08723155156268021
-0.6325496975547544
-1.6305088730317665
2.141476606310188
-0.08344122329495163
0.04029031468692268
-0.7872451829109698
-2.014409101237944
0.5997906176917446
0.03885886505489447
2.980185085042011
0.8611810305319503
-0.6481254698269252
-1.116997014938655
0.47255977651024833
-0.607041935350615
0.6677737766154519
0.8464900683520775
0.6467514796905649
1.6920620650171923
0.5345781210021481
0.6943872271879719
1.3141496357262454
0.5251075072982038
-1.3661965866907342
0.5678372584190695
-0.7758494401162475
-0.6971823586975885
0.8324697206975938
-1.6383793234748631
0.6665405565172127
0.08021693779144394
-1.0587912590961253
-0.017757446783388735
0.6248076382378192
0.36150711912827516
-0.5807906934667477
0.25473604788720433
0.02904905241662456
-0.6011017971310867
1.2838019839622474
-0.742798250670135
-0.5894728795639377
-0.058618919351166206
1.6746037691284916
0.36748144336181515
0.2080006470114042
-0.9993294797206038
-0.15709765761139496
0.2471115149303957
1.9453521957608917
-0.2806243419342349
0.4322884682581072
-1.1815871195792336
-1.9237759710308517
-0.29347054269116657
-0.05518166746354733
0.7428703392263641
0.3982011693786775
-1.797888209309732
-1.3132643570742055
-0.8149474415345934
1.4001404387724696
0.4544540178526732
0.793487558347481
-0.7011285568157255
1.1419306084938041
-0.5998035736295273
0.29937423605196
-1.8415318318847633
2.136310963604173
0.8550355517055374
0.4804402853039775
0.24339300262347724
-0.27271681919915847
-1.608124093273107
0.6332511171246167
-0.5231459022792087
-0.3014280352685537
-0.30534750399412686
-0.1202982395722034
0.6653563390132643
1.470109432926282
1.0030715565950667
-0.3520420178254772
0.4745955132048855
0.8965518053093385
-1.0093993399450623
0.6928651300383578
-0.8725786841776682
-0.5555285346875405
1.3296334955852316
0.637713072014677
0.5099159913447184
0.5428244748556429
-1.6542556624557476
-0.1510136578787585
0.1331647985123527
2.401139524462105
0.4114449593727443
1.5379346411376602
0.5597014851608513
0.4871312510576409
-1.4081433203080587
0.09040786984656234
-0.12795815959368653
0.6385807713652775
-1.2606192125710614
0.5852466380686878
-1.66941858084571
-1.1951472048856886
-0.09159268955733292
-0.35339355127728345
-1.4604667635552957
-0.396585801336189
-0.9973923381639569
-0.7759260750250448
0.6299956630212932
0.3359935074852404
1.0007045873161917
-0.7673399696904197
-0.7141224896510594
-0.17474403597865285
-0.5773520525082594
-0.7701007903973687
-0.3087141321378162
0.8977509942050851
-0.9536270643095439
0.6315278819000288
-1.004927864061075
1.0854492664485849
0.7138129930925073
-1.8751363826906258
0.4061110315882989
-0.9662735557986404
0.6722814181825285
-0.50265026239973
-0.22382992013621558
-1.867452687201177
-0.8039744089550755
-0.8769981963634748
-0.24099517298368464
-1.1967358147934688
0.4389587376511258
-0.6077318974222129
-0.35229413477042165
-1.1608031821974152
1.9510760611942108
-0.7517867668698546
-0.0748257118392262
-1.1427091013202701
2.4243261175765443
-0.8493933786527985
-0.5262855039871055
-0.8646615008609058
0.06587740635845246
0.72731149011629
-0.12088707234122557
0.6529599922692533
-1.0503835644236295
1.8164272105064114
-2.2714402986424167
2.0524608254998635
-1.3138788867518527
-0.6087592827961066
1.384179945036646
0.04613795958353949
-0.9548050018925904
1.1431732732190873
-0.5822396189507344
-1.4697049562684767
-1.2576918134702624
-1.1789434439307092
0.5443308237849716
-1.0043574341305885
0.5054227223394441
-0.7450498815826845
0.44996623590329715
0.20250069472974477
-1.5741730165761756
-1.7135066714197031
-0.16780494057590672
1.5488810224858602
0.5422126116763135
0.3133009805822687
-2.1245241230046146
-0.8533389337692203
0.43020528681511816
0.4757226057555166
0.8476831141344787
0.4552736114297182
0.7195946491320494
-0.6886375153678757
-0.22643786964543275
-0.06729042754671634
-0.22488372631048403
-0.41518769439268766
-0.6154913925968319
1.0151945733360461
-1.6946234125417419
-0.611049198282795
0.397310636378733
-0.8805091116236337
-0.41076991215698283
-1.6000391539844208
-0.37075967016491324
1.3101620118636488
0.7882494014294326
-0.3876150806043519
1.0268231899827625
1.0256064748577545
0.26405800708161303
0.06254056598027341
1.3800324910980506
-1.4084766269799252
0.5597880010791174
0.4329953132330185
-0.9575127226102393
-0.3940798187512553
-0.9989839565246673
-0.614770656866092
0.6922342772530473
0.24997072452420085
1.7222609660172532
0.8247283066103165
0.7321609108751488
-0.4634688872217349
-0.5536689773235743
-0.07801889129172021
-1.1150231050231312
-1.0085067914218226
0.41117078717041866
0.23712132617840126
-0.15300155727223308
-0.11249121043503409
-0.6734969262182647
-0.2560025774914322
-0.8173718708702642
-1.2738560434371473
-0.5365124859766625
0.1706598877059003
0.40382991946249663
0.052219695722374004
-0.6031025065347027
0.24547439597940388
-0.35439169870360887
0.7078380514749046
0.7126661399397671
-1.3409170939989412
0.8451835077036081
-0.43307556739272407
1.4172941867300168
0.501588078315693
0.6166368800632545
-0.44211147290466857
-2.6468313371140164
-1.5291293038325529
1.1159916161871404
-1.7547384059472144
0.5685281173718063
-0.550450867799656
-0.2607252247733514
-0.5130386417581565
0.26856459668873056
2.3693922114900787
1.0787100296592536
-0.3087070988300295
0.007793204891029665
-0.9869579372397755
0.3835724204944732
1.0996538404191816
1.0257137142214177
1.2854646665722245
-1.2938474928665502
1.5902061890971442
-0.6036001090628508
0.9361373937715161
1.8442340646078628
-0.7704772007015446
-0.4611222868279288
0.19128198065799978
1.2540080432860794
-0.531082205687423
1.4145387769076088
1.8158654267755492
-0.15501876755437266
1.5732654053077888
0.9367025361105474
-0.4864110181232294
0.7375067135039888
-2.024701933863594
-0.7575482183370091
0.28857010599895877
0.05913195027511936
-0.1347283213519541
-0.6938258936981783
-0.5464228174248569
0.04313689735761337
0.6246237694002259
0.4748393383039994
0.24981841519806286
0.03923522345468414
-0.6787793197838756
0.7903575111884094
0.6783060744161243
0.148702625355309
-0.7203154474034524
0.4909141560670984
1.4536351528726248
2.2037558536340516
0.18737170129573558
-0.014224800574657805
-0.001988094694713844
-0.8730875024537841
-2.1057284769415427
-0.06260425264693921
-0.19303356900270072
0.7164298127530555
0.29339707311629054
-1.4055218004875647
0.26217302721437824
-0.3675745444334869
-0.31817554558089467
0.12788397251413505
0.007071973161540401
0.5556697683505313
-0.7855232824772129
0.30890221518233835
-1.0484165542586428
-0.9666476621088587
1.3723791597474544
-1.8635898831771212
0.4921126982593435
-0.17462401932200677
0.39686050832046904
-0.40172034053389827
1.715663125822184
-0.27080586703587506
0.12214124674016713
0.7161023956012635
1.3251147216150365
0.37387969812987776
-0.2441615752401438
-0.8572944778301337
-1.2259361696054012
-0.8338705280453753
-2.3177290996215296
-1.5344459380947417
-0.668465044228109
-0.16656748260337978
0.8466428425656178
-0.3657082584053956
-1.3287795081626923
-0.5494184274011615
-0.289611545240231
-0.14582816260866693
0.4684543438791036
-1.7684556058334964
-1.1922832935229584
0.12522996196911312
0.7695147658343918
2.060151507373058
-0.3145008517969577
-0.3240253526676485
-0.6696844481098871
-0.7037679543428121
0.8058844568846926
1.0312317893591176
0.9755431230211027
0.3297441885386941
1.5141079623568319
1.963697231559972
0.7588758811671372
-0.7830623665259555
-1.1882338329977358
-1.1315562014837346
-2.842408714482488
-0.5102831841692271
-2.7824203288351614
-0.28971228642968694
0.6628607233550707
0.3710688153233832
-0.5105956777660059
-1.9925052492097548
-1.7356539011305214
-1.6943453206090808
0.5952979286800468
-1.6662966772230232
-0.26147354639107734
-0.5755268481935049
0.21243955681603152
-1.6553386377783794
-1.0830800113945815
0.9255105563615638
0.053774243097830667
0.4234396318960928
0.33161367085297866
0.4000543810179578
1.3537026088069388
-0.5799836348289205
0.9679451309444471
0.219507338529249
-0.28002314814437756
3.420020945174037
0.4035044537935386
0.20953016572904629
0.14540608367438643
0.8842238952409038
0.43383561021659905
1.7460738553202053
1.2062388746175687
-0.6480923168760102
-0.7908411022771689
1.5493882821247547
0.7901207261912133
-0.8875029194541544
-0.4612551857995046
0.710217442521978
0.4289513855677509
-0.9408563000805366
-1.6388864719815723
0.4703964204261123
0.5741374971347992
-0.5945160749932037
-0.6027713743883976
-0.24665372956557732
-0.399998352316829
0.38880715126640525
0.2135682918305132
1.2025467737066466
1.153800444091089
0.5611853116730809
0.8085781865858958
-0.5264234407475226
-0.9158193042027594
-0.28313592161032997
-0.509021855693697
0.8989694897175422
-0.44920346847765086
0.17368085600352368
0.21494269067762545
0.7070293866093343
-1.253031471468483
1.5658709743644048
-0.05326317130792879
-0.3816266070573009
0.8832925898472639
-0.660919535036271
-1.2648440155866896
0.36881132678318035
-0.6857847640298659
-1.6708699526176791
-0.9584122459616593
1.0227078931396476
0.5575012968358186
-1.278791006761505
0.5429802942439877
0.05788471102329411
-1.312313177544822
-0.8654552873864008
-1.1835458608634395
-0.7165174509663734
-1.0109632717742527
-0.16031407191551628
1.9042400824835035
0.2964820313273758
-0.31434244444507686
-1.4636093104370818
-0.5893597996505604
1.6685954978273296
0.3236852093527837
-0.1852195833427899
0.20005097702754765
-0.7997199357726195
-1.081821513877167
-1.7771879187945492
0.16623521775248928
1.8183259569233743
-0.3645046482929142
0.5586375702990017
3.797289837073818
-0.2937376295804781
0.5316136849589201
0.3326285991678109
-1.0943621034115625
-0.6669533478533689
0.9482671088226592
1.297864777120232
1.2606300211327244
1.7523027105485611
-0.14786848493328586
0.06234880436292971
0.8291757666343358
1.0067425994217192
0.20467288464288333
0.8155394983016604
1.8766261084148699
1.8718246363956061
-0.4642795048340766
1.624052462235463
-0.38778535997691116
-1.3658577710915123
0.5965798390477514
1.9224706078528904
-0.6088845086105363
1.6824533711298266
0.8799416250979848
-0.9941447168123123
0.06216511382577917
1.0661152555831888
1.3888006863690225
0.36381235457695904
0.652369532222337
0.3994638654750275
-1.0745612363976393
0.5066813216991295
-0.6868305883027592
2.531938247975947
-0.656422136608293
0.10355034821525404
1.4038986304065433
1.1173566568915838
2.2816200146014
-1.7705036924922861
-0.7018149366849964
-0.6525748689000401
1.6284362239469126
-0.6505618868073777
-2.338749081748336
-1.6204158778226836
0.12176871345551546
-0.2860439795564503
-0.6771601967122555
0.5663820862315161
-0.24271682775473422
-0.3739826963377107
0.16075782534393868
-1.268454033650871
1.079484952649329
0.7503759843272034
-1.460622747654633
1.6582272636385595
0.3679557388839537
0.8536524879354181
0.25261077837985363
0.1269811005127986
-0.8244508915422526
-1.5069973154678034
0.8949184621820331
-0.7424017706256572
2.1021961592713687
1.3863866788189043
1.2770143091712591
-1.0140768059565743
-0.963340282953869
0.6213561053237073
-0.10779820819024173
0.38441296287692606
-0.24400123230058357
-0.4115126644177915
1.050117790581905
-0.6019501241506611
2.4310573623226825
2.629120351890447
1.4750503893022873
1.0867260260819163
-1.589171654086799
1.2782454737181563
-0.9759432527158365
0.9051417916788134
1.6694826277619284
0.3220910150474442
0.18808469907009714
-1.4894108104932187
0.586671461473278
-0.5349953603698934
-1.6339516598037804
-1.4187532163223118
-0.17732656403183783
0.5667666131205533
0.182371217291677
-0.018044398834235753
0.1316844858887593
-0.849250741301316
-1.2637510942867793
-0.589485242639123
1.3085708906573563
-0.2188986747125814
-1.3376626760267352
-1.1401045269483348
-0.4665177819022658
0.01124963383342615
1.2660799845443667
0.6634102890370883
0.4977578363191887
1.4892243918247614
-1.1151260451532137
1.007839408052942
-1.399288785439082
0.3601399232957972
-1.3197911032289076
0.569511861858502
1.9515233140532122
-1.255145135658083
-0.3036815937361336
-0.26070738463065535
0.2825598592210521
0.785825416319763
0.835833884642709
-1.0549211781186472
0.11705155268627361
-0.1958536604156548
-0.9058223812641477
-0.2601344379626226
-0.004502704055713597
-0.37971181225748674
2.0761601885497862
-0.22265197059262978
-0.5867571527552156
1.7840753278491452
0.5597116258694288
-0.751853377269695
-0.3458256223441246
-1.638163736538731
-0.28055606531119087
-1.6667680616080378
0.3700443664841829
0.028483560796300208
0.9575591687322039
2.131640833985246
0.34544680434972824
-0.021649885285421083
0.33297152600659635
1.8849502558178233
-2.5389469403008533
0.39247234008194193
-0.5369793341442872
-0.9360663690593513
-1.4897216243577935
-0.034376233975219106
1.4376533059895467
0.5049434334376643
0.09328698519694602
1.3779132432946213
0.3569240777361576
-1.931787185153125
1.0248640339487143
-0.11013664748261386
0.2854920656510901
0.20282616765476474
-0.1471472766153605
1.127118477212857
-0.6244350694885764
0.13098812558230175
0.9537783479349973
0.4933318154569098
0.11896970122901965
-0.5164657122839137
-0.5240828779412336
-0.004515271310688835
1.0563892229476453
1.6896782938588337
0.7772815916077558
0.28734365246013815
-0.6764776660896732
-0.6506788021523571
1.7667789647491525
-0.4108481152828477
0.7889932076227014
1.8458174788901882
-0.5972682275190693
-0.980000876495407
-0.31922649257264063
1.2358787901441068
-0.11733871322147676
0.3511783158302684
-2.16341851559112
0.17681442226122815
0.2284550598216288
-0.3332190421667935
1.9538254140757794
-0.3443126444751909
-0.10342745185670771
0.611889856150706
0.49817925897080595
1.0712676141498534
-0.08914923049627162
1.3971357296903213
-0.4312922405206659
-1.8151191359336438
-1.7380705099358023
-0.9241016074570029
-0.3343174025564492
-0.5725668770456595
0.40449743281566614
0.8351291622498285
-0.9575080259737923
0.10817681008860873
-0.42885542587058906
-0.5905188140357235
1.035234026510976
-1.519611685112981
-0.6800259459462501
-1.1233326811313105
0.4562146637107373
1.570463600792527
1.823152065062205
-1.5082000379958571
0.05431238135217359
0.017622468357308935
-0.888963837452249
-0.9383998043266977
-0.39806665985005296
-0.27789032623279786
0.7911755236822572
-1.0245857848693993
-0.30350863658186994
-0.7231026251244722
-0.09434261462423266
-0.1024324591610447
-0.11893428631274422
0.17757631294574278
0.26941858086388765
-0.4906670228884152
0.6074031683386466
-1.059744568775066
-0.9789374079483715
-0.15544677666779527
-0.3952390982579826
1.181034308756262
-0.28184366064709093
0.8371993022334661
-1.7489043580685284
2.4800047103889553
1.2647528991614585
1.095234335273824
0.7746505850590726
0.645479883353363
-0.15030413910774912
-1.7619072136385214
0.9982374079852865
-1.2330684145991795
-0.566835041312369
-0.7587043766481334
0.07534883118771642
0.6121233053678689
0.41477561571420074
-0.6379805486579395
-0.8790368991645379
-1.8386390392885368
-0.16464293421912773
-0.15904117499766482
0.11445658420336652
-0.4125495156741332
-1.8636186313863734
4.6647554541977466E-4
0.042186736379056344
1.2273240006808008
-0.63352523568596
-1.846087706660285
0.9494100202021782
0.24587490728677458
1.879814047247413
0.07231067513029037
-0.2538681025561636
0.2504539597536915
-2.1352231201263563
0.31997331348619
0.49126416362966857
-0.7265569888598069
1.8773048964713965
-0.7347928876886342
-0.4684697623720605
-0.3325389486880055
1.5050821651700754
0.5599747570774872
-0.8575420285592569
-0.021955831972719476
0.704019487758409
-0.3256210147106493
0.6155563741381493
-0.31410944935111734
-0.11798713564759464
-1.774241620945673
-0.33709448326528507
-0.5442145342596985
1.3660655469042386
-0.25754659036581795
0.9874383559878485
1.3132150848834514
-1.776937987963614
0.06793303430870462
0.5254782569540443
0.07010775342918198
0.7729614844888772
0.9716897953859563
0.899895683385461
0.6308179695469478
0.8687821020174616
-0.18630090432672394
-0.842594217339067
-1.29759944346407
-1.3430442275303938
0.003158925391282069
0.4849597647212074
-2.431613698424441
-0.7304883319463424
-2.0399638951994077
-0.24053811309791373
-1.1781312130405335
-0.2730063600459246
-1.8313983935961657
0.21586528202099173
0.6851757540865097
0.2193203614807805
0.5887924948502512
-0.37628274161763237
-0.3430396699094579
0.3007737145900659
1.5895285110166535
0.7662113237154734
0.07033348469467665
-0.823037530235764
-0.2258794771788426
0.6437060204538072
-0.1529126630074896
0.5319913331432011
0.21531345073006677
-0.44044144451313677
-1.5535239471886804
1.1008982668632818
0.4517964679738959
-1.0527195190147505
1.2179213787782492
0.9053595005172455
0.22401221982239833
0.2415913974997685
0.4312291132261018
-0.18966384265611363
0.6922055463649852
-1.6155835047832205
-2.186629879416946
0.5704556134267712
1.4108066030315325
1.1590540582381565
-1.6086396882964786
0.47155263931416913
-1.1900909463068778
-0.3131963535400786
1.2501035578611255
-0.3503951602834414
1.2274072661292585
-4.8083153668229683E-4
-0.5367104077896933
0.3916159821267734
0.805749955517812
1.1050494069413266
0.8108499950114786
0.5979226582101498
0.3275150392876364
0.7209374046373
0.40842593046915654
0.39704334536117675
0.9459903787942125
-0.5223820399426825
-1.0498994138649596
-1.43243396563962
1.9350958164769885
0.867258047228739
-1.7019843747175398
0.9031481181989715
2.203566038264216
-0.8538701427614308
1.3450942577990286
0.6253152747244446
1.394467739862666
-0.57062324859024
0.8427418577623569
0.5358112157046409
0.25046460172119556
0.07825519764339302
0.8133570980224707
-1.137731728781823
-2.7832944003301767
0.9829138968626132
-1.4228070770959418
-0.6287511935807266
1.267088279115693
0.6829237745233951
-0.48214589596187873
0.9738562555554999
-1.0377790874257555
2.310950011384933
0.24340444556835972
0.1371952638417428
-0.4573907251735642
-0.5842468736552933
-0.15880000804334382
-2.849327428883683
-1.8279553262112722
-0.7242218565397405
0.8792419023184401
1.2907046498596007
-0.8540341687156915
0.89736842274315
1.6055783833914457
-0.03378729528294175
0.6483326837693391
0.5522284593826727
1.57343403318939
-0.07366684054950079
1.0479526299757267
-1.0171186886160508
0.14106212038027593
0.153601189279193
-0.010363731043127489
0.5096491522984967
0.14730791985290442
-0.565173073787249
-2.2181823272255135
0.921510060193282
-2.7666398770586107
-0.6266538539989931
0.5314881212899703
1.9058223244353727
-1.8418480015379164
-0.6920188111158263
1.0601337710297705
0.6711628087218391
-0.5316247963989003
-0.3572413580473737
1.3624267152370215
0.5130029303268137
0.779409829291165
-0.551850560488879
0.5230965559309029
0.5222130325530125
-0.9780464647129787
0.39410348626862485
-0.33115905388003813
0.631567191950095
-1.4457090849576222
0.25193157516038306
-0.12433935311725702
0.10842634884549168
1.1142504986444213
-1.5681507471176956
-0.642045588233511
-0.11507092182459557
0.16975098950365597
0.9220834255951281
0.17869924291664047
1.5879859635717153
1.7211839979748318
0.813875150415855
0.6301702793131332
-0.08347094272941614
-1.1438284963345224
1.9498011172782765
1.507813026205595E-4
0.0653652692566758
-0.33433535680037196
-0.4008623623278513
-0.991174218742177
-0.40575367896262365
0.3297712877798681
1.4348808576444012
0.9697617533719207
0.8064298178006157
-0.04037398727577732
0.8163669850806848
1.3910113398598134
0.48455407932982764
-2.4125552225928026
-0.10959056476677309
-0.5930017461674826
-0.09042617020771211
0.07546493123332544
-0.0035562929781072505
0.16618890759318986
0.048214934180249885
-0.3970261471983265
1.6147456527611679
0.6873670529834566
-0.9274037990853796
0.2681126297837032
-0.24978838440594245
0.8164560288655462
0.4391588923916176
-0.5735965328772845
0.5869325481984822
-1.7280811527566717
0.5052164084349973
0.04600335371054798
0.13871524643496497
-1.2403576527913713
-2.3391785324237566
-0.05863958243576986
-1.9209764224131163
-0.8139559926238924
-0.2609494483131278
0.3298162632808987
0.05486652606935383
-0.34082119508281256
0.2172532915023913
-0.2829349116591888
-0.275801018265949
-0.4356682618707368
-0.8967744549663839
-0.33323380073701975
-0.634034405882909
-0.2637424867063809
1.9728793845992965
0.39968811917767216
-0.9949796117108722
-0.3622674909668922
-0.11202492502977059
1.237749233073441
1.3703547615238123
1.1577926197196253
0.8827530471157664
1.6066306658337541
-1.8175245584579331
0.9601968088375866
-1.0281536741232664
-1.9080955764623893
-0.04463502581182336
-0.5354697768833705
0.3293070519147416
0.15101851507007613
-1.5683393441054514
-0.7831980330095101
1.160076386902196
-0.20002173870027273
0.345798244872137
0.43476823408541426
0.03581979947146606
-1.8688864763899011
0.46780555369612215
-0.34855799579325564
1.0734584971031245
0.8238860726029653
-0.9092680706787584
-1.830539296259913
1.0848809604669274
-0.9706765858199606
0.50875252043157
0.16653814893792523
1.6445492264604316
0.5842099812182248
-0.20301307963171514
1.5934200288308733
-0.35539888488679267
-0.4638067791475451
-0.815706381241807
-0.9796901590344393
-0.3213677007001729
-0.02823503303522304
1.4622933722297586
-0.7954605323075665
-0.09759140688301095
0.6565828558861015
-2.34141613750464
2.1403165177544516
-0.3472123988895894
0.2840010534624727
1.4249351116876523
-0.10592814782785594
-0.5575270892619907
-0.006202772018016917
-1.3700725546615378
0.411200034471309
1.6834734212293816
0.19031310726829273
0.2927514105424905
-0.7939273440469543
2.351865391536507
0.8879631136211208
1.270120481101475
0.6881227289650186
1.2357749964787108
-0.5708813936877053
0.10610031102671852
-0.4435263621591469
-0.8712649248934319
0.4614408319896008
1.0430472293912425
-0.5717619022886313
0.18622412615129472
-1.070565042810373
-0.08890852688050474
-0.0918374214922258
-1.487161496130347
-0.08405945601218638
-1.1201614469679735
1.1721146505303432
-1.5363700916157812
1.2254479259306468
1.6095031022417243
-1.3042615128176953
2.1222967674278115
1.2821074431421107
-1.5722360836574403
-1.854780536458493
1.3278402583735192
0.293621392771311
-0.516035305943814
-1.5860748265222075
2.3208019290623993
-0.07278448383467184
-0.4120448329008525
-0.5699037977419529
0.8320464842623803
-3.3010642739060136
1.1155791081162876
2.464888851865068
0.6491786983080522
-0.32462564945867844
-1.4822456383905425
-0.43575296550501763
-0.2839522194601803
0.44011414967905615
0.6287457356586204
0.12059962990292614
-0.3164372362021883
0.05251649923542548
1.4736630393529397
0.8472092046767989
0.9947944400019229
-0.9896112524884262
-0.16776297896036863
0.896802036580217
-0.871412572429227
-1.3344687107160589
-0.6134960074339515
0.8339087466930388
-0.43627767358567643
2.7701715081434455
0.1919294589298989
0.10651152808225113
0.7439499958241901
0.4034039253615344
2.6631631334009196
-1.1557891010946253
2.1471189739022476
-1.054406473336119
0.3047112795340686
1.0717836366211009
0.12505771617705935
-0.35497551151450785
-1.4782309036867545
-1.3545893501395376
-0.924390504497012
-1.4763905367016303
-1.4336795285078978
1.2307551038602338
0.37306047167807693
-1.719182135049895
-1.2317275155677376
-0.9648293888827293
-0.25705727789529403
-0.8622983301103411
0.20382646986306868
0.6886064356437419
-0.4750703880630113
0.9373230476788957
0.8083760143533187
-1.115702200502954
1.4744752951336317
0.14554117923378423
0.14310407710785147
-0.08638067474185236
-0.8315197067706722
1.5249375280934738
-0.43183976817301634
-0.02420672604372387
0.11042588854250521
0.648252505601166
0.37042362355970737
-0.03618396219067416
0.6126301135830193
-1.0952162814067492
-0.12110452824569788
-0.5009991476871603
-0.018795619876182397
-0.08265939646727134
-0.4673610709249397
1.4396914249765789
1.0334927567764556
0.9548077813641931
0.9363925724137803
1.595565925999873
0.4184499283756678
0.7492271607377523
0.5283114018188768
0.5273745879297338
-0.828561206155614
0.9356065622395922
-0.30840634688394464
0.9041128447934019
0.4362531439115559
-1.325612576728534
1.3832817140076739
-0.1533983137264303
-0.45673733852325976
1.2469468284102732
0.5270060012933967
-1.5775015716827783
-0.2106785005559397
-0.5026270253106896
-1.137194998636187
-0.7284742059740583
-1.270308180989695
-1.3305681061175736
0.11765477359080682
1.737016798763834
0.6780554120719902
-0.29463015286765143
0.34360597394058406
1.411266523816965
0.0072105458437539465
0.26900189508463157
-0.8737141406275416
0.20147852875709893
-1.8100611731884952
-0.16336493892211854
-0.9444867410718527
1.4762916955179703
0.2049085374614057
0.8569397018056382
-0.20672832761897247
1.0350559775196118
1.055562512762356
0.018280813101822918
1.472917626709312
1.0267074522295827
-0.9806868729351395
1.7987063540445363
1.2596889451705602
0.17125719421648497
1.6254471441169462
0.20608680328913304
-0.2857298951044771
0.1283431907058111
0.676756416004947
0.21221552023011242
0.2834062646505279
-1.516992463469953
-0.5408427854303013
1.5427420240311533
-0.47598088826139257
-0.02207297254898144
-0.09766011401844402
-1.33553686139164
0.7724449151218074
0.13602751894115866
-0.7766800388413726
-2.1672117147260033
-0.5922661862313572
1.773187347744644
-0.6589549311981343
-0.569216101246845
-1.3352148381159648
-1.0767476523063595
-0.9239801294159733
-0.9952011287902467
-0.8015834600891417
1.22320175177838
-0.6983880160290633
-2.057421272317435
-0.581554656532947
-0.1975666050018901
0.7687402859755994
-0.18154294132882756
-1.150772384498274
-1.1964510197814153
0.9456768428080821
0.3523416513083331
1.7957836704522014
-0.6630575245579109
0.5586687280141018
0.3099959430938955
-0.9823241545252076
-0.5224659512090226
-0.022570599964462257
-1.423507828142785
0.817741540692666
-0.1343633370114137
-0.8935827745694029
0.27835039784389676
1.1429095643548035
-1.2695199720909902
-0.1367290238855823
-2.9082259729284714
-0.4883875227594966
0.24772800765789654
-0.6907283535704911
-1.4890016298580002
-0.12129128264676715
-0.6117173053879428
-0.07504298183904101
0.4164395603805325
-0.9157069196763702
0.3033633952908418
0.13207824993158745
-0.9231366524157727
-1.7368600941255212
-0.9011756287867991
-1.350344715204902
0.47383487585303147
1.4890261459749554
-0.39978669426150026
-1.8897216225795703
-0.4043957439329739
-0.4741145221025536
0.6805476935104959
-0.38376586745526364
-0.06274831125564967
0.30253778704499157
0.13275132396996023
0.831366628548594
-0.36357177614925806
0.33285880474579144
-1.0614341108102097
-0.9597849588945009
-0.8013193073212628
-0.36187192989421846
2.555477108023222
0.5270538893844123
0.6359954580916205
-1.3065436093269924
0.10591804063680121
-1.202974395156828
1.4972360341037054
0.578648406400214
0.1572988542906531
-0.7975301814855348
0.6438119013580386
0.25754429322582034
0.7064213282435612
-0.433663441313587
-1.001942791221072
-1.2264572651052985
0.41164577574868666
0.6381876462032608
0.3674699293634992
-1.1702204246018433
-0.5649368783461436
-0.2731087780884095
-0.9707032513176073
-1.299543976528127
0.5272028205922871
1.3957372478804275
-1.0961226233451895
-1.1058758143452618
0.249243974215543
-0.3144565085605673
-1.6535683180486909
-2.315389786252576
-0.8988372257973207
1.5704905866212435
-0.32557120355115193
0.2768096147230538
-0.07453203465491447
1.4940438861389802
-0.5159407918115254
-0.12120812400339392
-1.3844287132803277
-0.8136560234939512
-0.5900371389319998
0.6776578596780061
1.6975965080486504
1.752274706767708
-0.05224741641549324
-0.384947867175178
-0.3031571992759711
0.8702379800676983
-0.3462011528539486
0.10779145914306983
1.280728766813056
-1.228535561255295
1.3371201875225933
0.35114062543183266
-2.0559313336010043
-0.20982614554409043
0.05028579389148523
1.5600884585409107
0.49593789126532245
-0.19815910397791678
0.02963792226206871
-1.511500082215388
0.17200054251995742
-0.056064882670392224
-0.17260822243140167
-0.6907159688009765
1.312342598005939
0.4390580204476448
-0.08294943012823014
0.4427129220829235
1.0612529280572995
0.09354150981204042
1.3608662765643997
1.6036837277873877
-0.9259821796781569
1.4941522893113943
-0.6876486566258844
-0.32024194732274197
0.06517449613076756
1.3676091442887446
-1.4520824450764047
-0.2325504480844523
-2.37312211984726
-0.20577558317762354
0.24553151871545276
-0.22688300584071186
-0.4366754071568943
0.18957831393022156
-0.31707921400973
1.2646972066401834
-0.34814749547709706
1.1628727953711402
-0.22186630955712777
-0.2690721316325902
1.0253025327092011
1.0221039133457672
1.0132981227437272
-0.47669250281273357
0.4959233243218818
0.3481165489079622
-0.7270805328628829
1.6064853745348977
-1.3704675546090328
0.02081645319524758
-2.0578425362050403
1.41094508887844
0.2624096339046388
0.7628575612454584
-0.5931212332474984
-0.9703444833357212
-0.47069769871544476
0.6692794115616365
1.4705655189113258
0.24556495593594338
-0.5204796844797197
0.2585153755431822
-1.392573155328391
1.1926027136150827
0.8291988327056575
-0.18371534874493933
-0.10924921386746206
-0.06867273025785844
-1.6383350771906626
-0.8292646247979785
0.2704248929202627
-0.5387830045121803
0.2996633529075291
0.8759366050287984
1.7431037190417267
1.5242762792450497
0.5602335782901093
-1.0054330390809971
-0.9614343867851082
2.354039124675647
0.02619220103841774
0.7361747474931368
-0.615476369417626
0.09590944670063406
0.3176718133364511
0.4996537713546934
-1.340363741846709
-0.6673826062040176
1.8378831975209957
1.6612532575958519
-0.2623915519049543
0.7362729718466818
-0.3503141026953372
-1.098240027123236
-1.1171015905429078
-1.1071907564766394
-0.7709446428677748
0.0779799688400315
2.0440995438962193
0.7060461640211148
-1.3054615795167697
-1.4016395423130996
0.9475863691120803
-1.7479227200979908
0.3108665784701135
0.756124938939974
-0.9525006447009163
0.8522929071786502
0.04318391938581956
0.6343133795919971
0.3302508166230995
-0.018772257914244094
0.7558530800571319
-0.6400642208946408
0.7275445324953391
0.4857450540825396
1.6655472007997134
0.36684299853621066
0.42657717520422905
0.7061858151815328
0.43818736926692403
-0.33765998121944263
-0.13411196043857201
-0.6807900871195911
-0.6568897422830603
-0.3397105187881952
-0.7797937624314106
0.4972437265931746
-0.23031078115857598
0.5406603745526499
0.7198317210053383
-0.6606569528544091
-0.3802823858940286
-0.5306339244988356
-1.0327661094894285
-0.4521397601058792
0.5225283603535034
1.2930039964815425
-2.1307147848181356
0.8981143642451435
-0.9121571748696216
0.8225650919740192
-0.17039250764119546
-0.929746967467803
-0.5072081073031679
0.7770658550710023
1.3256341124958684
-1.2942069905768714
1.3598192524740729
0.46813088364705246
-1.2067841480596366
0.28586214894033324
-2.223418182236322
0.9343102815418667
-1.0697991938206102
-2.6855604577785037
2.756317826642606
-1.515534100880998
-0.31297363328869565
-0.7998126934497976
1.0446759848299383
0.5700292215795599
1.517365052805505
-0.5585964042509509
1.689060058362022
-0.6428640378363664
0.27179677060239693
0.014204566169847166
-0.2379721414781759
-0.13215603115119975
1.2388784139294604
0.7625809125434062
-0.8492538237069494
0.490521375976836
1.6964125755997799
-0.534682736013102
0.4112687965095006
-1.1227586888479448
5.474755246597335E-4
-0.265027581581105
1.121390014837826
1.1413376654172511
0.40798896919333105
-0.7633615813160681
0.6097880198377165
2.2577713871577347
-0.06917020555108563
-2.2576689035847726
0.16996553214746937
-0.706824307306999
-1.9586068419152558
0.9583234582263099
0.4776209126525056
0.7654312311537255
-0.6852478336370351
1.695633402346367
0.5695428700694531
0.26046879993124067
1.033282344860303
1.6703743803587519
0.02958275425309872
-0.4284209163725206
-0.745967725725404
-0.6670373029549723
0.5743069090250343
-0.27697113636144777
-3.182462228667159
-0.43152661969615486
0.30435526357935827
-0.27332039726129687
-0.7042092596541492
1.5878780390788285
-0.7214389798196019
-0.837482608575398
1.2175506044448716
0.37324338990891825
0.9252896328936313
-1.2762086855630879
-0.643525922168045
-0.5075709818649674
-0.661628062150424
-0.4579413802433903
-1.7046119920127085
-1.2086067806440626
1.0683822908988028
-0.4203096568326057
-0.8989129724869599
1.236760672470241
-0.5436594732088258
-0.7302953386847695
-0.63073696552918
-0.7367984334719326
0.33030696433757784
-2.1395359527348066
-1.320696884158499
1.36534174656628
0.8204747589697046
-0.20971583073425276
-0.2290763578729153
0.7514459325058289
1.1831898396061098
-0.10469862933644183
0.5343097605378262
-0.4278532529538323
0.3173826880801422
-3.1423038332351556
1.2851827666871993
-0.6998142146148757
0.6130305434169423
0.8023555648558975
-1.2606514199273564
0.6333073285329982
-1.5285068197588414
0.8845305109190509
0.3839045620880706
-0.0475371190429765
-0.5793332267826786
-0.26671803459588506
1.885935466116622
2.0516567314269474
-0.631138907461501
2.3655435023877422
0.18250975002621933
-0.8580526285883348
-0.7155399798450983
-1.7377242117502398
1.656069613762473
0.08979953039593949
-1.1278442331280578
-1.0576251718068195
-0.5730739908373765
2.3642300234452556
-0.378522233014762
-1.823930425270234
0.9864632947295866
1.523787265087639
-0.835704398230743
-0.7747738759913991
-1.6666672140842134
-0.10500290942337286
0.1227702890407595
0.1990484629410202
-1.6951989408043397
-0.950298128909917
-0.8828449478395182
-0.17102099007016436
-1.022713926354484
6.047299576631877E-4
-1.2212203931609737
0.5999788353927268
-0.6898581713446883
0.2025915051856909
-0.32145770573870025
1.09784244437259
-0.7162683338664876
1.3569978832718157
2.5492642204703304
-0.5175241860016961
0.3607295317513854
0.47647942231629353
-0.052717729588284676
-1.0996679597582775
-1.7238800216084227
-1.376610449422605
0.7425942733025352
-0.6165985505049582
1.9610896908039468
0.21855385444753891
-1.896076364410959
-0.845078994240243
-0.8028617128253959
0.13729069113231482
0.7222218081081804
0.42606115103830083
0.0999588788505885
-1.2287090102508536
-1.0791270045234103
-0.7626692399827812
1.3374074935340634
-0.9036819707403707
-0.737500283274241
-0.5343430137938758
-0.5399445488579993
-1.2319729825463526
1.0192161200862455
-0.0931368933342544
-0.6935106777647919
2.7843697236439278
0.8123080624563022
0.48165670058417004
0.8595406161150692
-0.15446675359645234
-1.6225037652942238
-0.5863341949761418
-0.7352899886117004
-0.7495192221087629
0.3289409349063298
0.843049200613405
-0.49107198274255165
0.660601029662105
-1.2699245398996906
0.1804155288900375
0.3861437694877958
-1.0523191147765174
0.1704480148646894
0.9260489224309736
-0.49790062603821883
-1.0276758584472103
-0.5944634140539389
-0.7561391520551433
0.7568291656191469
-1.2753921601150158
-0.4745288561146281
-0.3976911394767708
-0.08301257115698985
1.593956237324888
-1.3804589440887596
1.142574411413307
0.1009335210836718
0.399074213366797
-0.1153177766995962
1.5135629511768833
1.6091963101198086
-1.4319712057915233
-0.158103387720408
1.3489099804208424
0.40036413136046867
0.8968515035077491
-1.206755072715057
1.0930820069442735
1.1142080185722512
0.34158161236956014
0.3010757315720727
-1.9077106522031624
-2.873399593883458
1.0812924802424941
-0.05443809859225597
0.2801896519717628
-2.2032732650043214
1.9063721703887968
-1.3339226877790524
-1.8407423169584545
-0.4914379411136614
-0.8670980584355799
-0.19179881322108092
0.8363631139983225
0.5679261228397365
-1.3640823290006694
2.2491434041449536
-1.9815429003083336
0.3726180861353347
0.6689550111683769
-0.8824051616405262
0.49884197108236267
0.08412888249603193
-0.8238141618463843
-1.4473750699889008
-0.14913649708706694
-0.8531481315596066
0.48325117295920494
0.8809178823602363
-0.24953523115302012
0.340756940110006
2.1448187436499246
-0.19240928391792117
-0.3705571150706095
0.11656294296266065
0.016280533985831153
2.584703532592282
0.45583557008137093
-1.7893440663149105
-1.386710647830274
0.6427847902338781
1.9978621333249715
1.0218668717196162
0.39702187637509917
0.3590055296490234
-0.17056625294777034
-0.20940666080601883
0.09005166271343054
-0.024829105803869714
-1.1174257952817463
-0.2370802318918045
-0.5834261591021574
2.0707954660566563
-1.9198248575618977
-0.1608557005177616
1.1887592622957959
-0.6326332488835987
0.07509403489261429
1.0063985785047096
0.1583542512593532
2.380447557892637
2.1315586444370984
-0.5372777854827835
0.5092224874308744
0.7487610167942733
-0.249797214164746
0.5060878306226744
3.0090808773470656
-0.4873192699356559
-0.27630977369149146
0.33741201555953404
-1.0493144680783717
-0.986872519748609
-1.360274710763043
-0.1906512812906525
0.8186149428237819
1.5182036126840033
-0.24672110130547123
-1.2864807439491799
0.3413405832426007
0.3581317324060561
-0.03647912520348587
-0.49287476105426353
-0.7856182620803389
1.5317428607555088
-0.11432724991989475
0.41831169798390283
-0.1543489740438057
1.0100246096645316
0.42576953919057275
-0.35970629133600773
0.9282806948092688
-1.404526224506166
-0.5975479686611733
-0.41831571248738236
-0.47374748730935906
-1.3576289259330225
1.639210781847108
0.16389741665388036
0.5297007923732611
0.08823543861140505
0.2942883880605363
-1.32777333810212
1.9463672918776345
0.4781356567381694
-0.33123394618599056
0.8405437680155519
1.1013660889584826
1.34516909844468
0.7707501586528922
-1.688481356537636
1.2385104839627903
0.6756999030798636
0.4180895976616129
0.9572560409774512
-0.34227283136075365
-1.5759458175422953
1.053105636713999
-0.5907984890195926
-1.0455438290794512
1.1716981334211996
0.5677795518090196
-0.6861814639330086
-0.7214827475471046
-0.8719987571562231
1.6373308221795126
-0.40723037365044173
0.1607132463466637
-1.1674008409111245
0.6885693059674772
0.9330468656216239
0.38120031690701794
-1.3696719407943851
0.09822210960818228
-0.5098496126012628
0.1470953627652954
0.24547505224566746
-0.05987251901712977
0.771678574952563
-0.7618826109416469
0.34121316612031
0.4664609392693259
-0.005639522951634168
0.8323245596622382
-0.39101439947846295
-2.0637047587141635
-0.05621005297631295
-0.22548184301730656
0.487101172069988
-1.2612431359226746
1.2736816716872397
0.012159624980297074
0.7600014851036108
0.6615264450014331
-0.5369294501397948
-1.265155737027637
0.28597944632549976
0.659266760702268
0.3211774094918574
-0.1918612792947916
-0.6461502746168797
-1.1089446412898496
-0.31159221349228444
1.7487970469120038
-1.754313943485695
0.946334253457414
-0.6278410382869908
-0.017277394238807448
1.2337531155534274
-0.43999683947263724
1.1702851941441306
-0.3163448605686573
0.8845473214051129
0.8742477225931643
1.4042183809320248
2.4171399402721367
-0.07378679174707262
-0.4793795547056059
0.8363034785606354
0.23801755691606605
-0.16418040208740442
0.5990656538877163
-0.29269669900796924
-0.38921058629049793
0.026371200229399417
-1.4275790130965405
1.993327650915826
0.4902896546261746
1.074173366356275
-0.4919541245250491
1.9424989885667057
-1.4186935962635139
0.02593755637591391
-0.739165534850106
0.34424268056442753
1.5563323780072464
-0.3881770979790801
-0.8371143982578026
-0.4487275921906388
2.163768704623598
-2.8091816029105643
-1.3230109834900525
-0.34315727441575267
-1.226123734460994
-1.2874221671270771
-0.6590090766565855
-0.8630578483560345
-1.3133901095714247
0.41681166674753917
0.44598988147763663
0.3611819262943911
-0.4974201349272463
-0.0700565330765064
2.475141111918177
0.15963478205716697
1.2926380114532812
0.241616550130775
-0.32943581037108494
0.796531550632362
-1.6837296039433565
0.7738011159880217
-1.45661139653435
0.36622815658833746
1.6261385428205923
0.26910530397391397
0.32422664249448
0.13332187896821146
-0.16244719026763393
1.589995048277132
-0.3790758968232176
-0.24882340642750866
-1.3299705401298563
-0.8556707884088876
0.22877421873898723
1.815094054654228
0.0019612239072261646
-1.2503469067671398
-0.3039011688007849
0.08678386948058431
-1.2269802870201114
0.060419437464953756
0.03661927982740367
-2.0150430907331285
-1.9144084021381933
-0.20357468497055986
0.6699571197434783
-1.9023907053348152
-0.5652300711728058
-0.2380788987120138
2.241890000532738
-0.8096690222449711
-0.5714783968501899
-0.9711318441966172
-0.2501296589232309
-0.834069040705431
1.4194535855992299
1.3130595407638295
0.42426405489908975
0.43226881473135487
0.3289362393796318
-1.1859188067506996
0.34385228408098456
1.9699870338895882
0.4110693633942393
-0.3459470538712926
-1.7415343994593844
1.2566661318334145
-0.6484759823877223
0.3641129877887361
0.045126434854732944
0.4904965468982814
-0.6869067437248082
0.2878181878227989
-0.16175919099376926
-1.9113315108867743
0.2609515093062775
2.6765713029026417
1.2092573499824588
-0.4561178318858416
-0.6363059454342465
-0.27420759525607924
-2.265776202994543
0.39742179931800886
0.25238548414302214
-0.9714534450603418
-0.5970682065717381
-0.46103771853973513
1.834998972216832
0.9074930712661438
-1.732980359065003
-1.6799714379305686
-0.25089303811749
0.3200476866767065
-0.2353444921386941
1.4198272451958798
-0.5145388250901441
0.6002184270290739
-1.07801473661658
0.953075057193415
0.24872930873998494
1.5739308244485022
1.2548779021545964
2.0927765236993383
-0.5109971635619797
0.04277213382309919
-0.9993653814800818
-0.06765463069285876
-2.0827340605044418
-0.5756193310238298
-0.2223485209003945
0.90568965795811
-0.1385891634466749
2.4588211543563103
0.5847832732938889
-0.3227024698205479
-0.9146359839337808
-0.599712491391484
-0.2699715651098861
0.4705331530183339
0.5512037059350163
-0.10774519171923491
-0.31214683686402056
-1.2864882022596626
1.8161451480424262
-1.0006920409046922
-0.13250473157308534
0.2996370179283744
-0.1846624700968046
0.11731398399921422
-0.30144688146296067
1.984437653973609
-0.06957849815587872
-0.7228726409390565
0.8285333671967378
0.05716078256613605
0.5403434798729034
-0.45745536853975344
0.6430038296953715
-0.8512089105340651
0.6792120456295055
0.013318447842325361
-0.6406687726825249
-0.24937765141688925
0.03457275422595957
-2.899393486171558
-1.0391966278998164
1.495555059721448
-0.30271350579052525
0.16982018691947415
-1.861788506377737
0.22635652080651208
-2.239731784302298
-1.1193881378448776
1.4824590704481797
-1.14508965501814
0.4346074547185605
2.4982662370340396
-0.4601867720210336
-1.0564885558857595
-0.4710143320292341
0.9196697521809145
0.47079732338067065
2.116556747663785
0.1313201764579978
-0.911758233218932
-0.8114141153393326
1.7800232647844798
-1.6291394425525199
2.1702117273564596
-1.1256649350577854
-1.2252410882406108
1.9941039032981642
0.5747770714723714
0.9092607344209688
-2.7560626393581678
0.04090731263041282
0.11249985497649678
-1.9297581392217225
-0.04005355919962808
-1.4388268552615349
-0.09613042182803128
-0.8374090710919126
-0.6044796759029705
-0.3332556047565566
-0.10609596799339605
-0.5895596777697185
0.8051182295977488
1.2296140460221703
0.7925223478428605
-0.1686842589777045
1.1374509194771907
0.31118402307601506
0.34615895361970794
-1.1448663574267417
-0.32434574691199686
-2.1522319792672486
-0.37428600290764996
0.06439715743117896
0.22064074271483744
-0.36541813248139304
-1.3782298355788882
-1.7142145948723544
-1.0565471644809055
1.1544588086837884
1.7865682321158238
0.701587053158339
-1.513226236354041
0.10046180160517447
-1.665439389328201
-0.5701646756877298
-0.7977044133793891
0.7633038296509312
-0.7740960339680276
1.545090917026778
-0.3125156462598179
1.0940621024553923
0.36911049833415294
0.871121878731751
-0.9086683937134032
-0.3331042385168725
2.546119464688456
-1.4036802557239754
-0.7393381028358353
-1.2269470383791679
2.242562443582099
-0.23270925381740412
-0.22216185437429928
1.208269011893694
0.8396377404999122
0.4532620980301574
1.1119023975173088
0.2849943289752188
-0.8068615526239434
1.6517700873515422
-0.7278550561038195
1.0126705697413048
2.325288055328502
-1.0523175726604264
-0.1750925032246099
-0.6679930381829351
-0.6915190770780706
-1.2588867339693925
0.030045316660926587
0.8101810080232695
0.08875536174801575
-0.9567033439814001
0.13999218985073197
-0.11869952207172409
-0.3331630966158355
-1.5150460770162597
0.2732382010065598
0.4850315299359062
0.5686576449708047
-0.7661729402145924
-1.2161187598020191
-0.8429841857706641
0.9710089207677264
0.6998410220268227
-0.5179318234379643
0.059419556566791376
-0.45504329398350807
0.4628747571350826
0.6832259258626016
-0.2390095603543574
2.2109233554667385
1.0087182422433962
0.6179067972983816
-0.5617571340375622
-1.1708020816813334
0.43745263905853954
-0.7607179653030228
0.17815184193546202
-1.2491350423671148
0.49922152648394647
-0.26673416895794855
0.18843813231292553
-1.324135661989423
-1.086356646717501
1.8740849501379462
0.7591762121359731
0.17382569755989608
0.02447073282093478
0.6450919550635573
0.5308284167564248
-0.291583969075322
0.051026754613405945
0.46637463517005934
0.32596321124402733
0.4877860312788787
1.0651410804300132
0.4381251963429979
-0.6168861691413036
-0.6759108141441237
0.28508653965843356
-2.3854970504389597
-0.5449337034232973
-0.3548450873453894
-0.5848352279651277
-1.1878935645366608
1.2776003064937134
-0.18107421344336072
3.05819357237025
-0.8889295111030624
-0.6136469668476998
0.8644057158734916
1.9084842942855134
1.0867437745569641
-0.44409852228440005
-0.07733085264685297
0.07621179753085014
-0.11852618849334437
-0.3765678146567362
0.8813658161442013
0.4088893747001175
-0.5616843914954063
0.7576952033468338
1.1050750554167146
0.7631742631170182
-0.7562687754175014
1.2553989202943976
0.06001270686921534
-1.3003307112913882
0.9009700961866083
-0.939347959309209
-1.2123819964143936
0.9501605552742287
-0.4509736854095262
-0.06339299142693054
1.1318917277049354
-1.6085646269521958
0.11792130434564602
0.9480978902826112
-0.015784603946897253
0.8546070894697098
-0.3989876630518284
-0.6535916394328622
0.23847314353318222
-2.0700112957265224
1.3170526856778886
-0.6107903087170907
1.5034078493543779
1.5756891781988382
-1.1647341238784652
-1.438484418289635
1.177330195508278
0.48161040992082665
-1.5076305782803394
-2.4481683946634356
0.5617067776105656
-0.09867242184885446
0.8681416466151743
-0.24531182947041835
-1.363276142883846
-0.45918718799612074
0.8537250221821888
-1.4977556686900322
-0.44721368639267206
-0.9480938061127064
-0.2172076285443082
2.1322988435744383
0.19040759050899864
-0.9390501154576623
-0.3706325565250793
-0.7645838481339086
0.9671529260896059
2.087984254761327
-0.4356805629431986
1.2892740292664298
2.432838835073361
-1.2717055758916667
-0.9997266008224053
0.3715153554750163
-0.732925627235271
-1.0014212140198986
2.110908115818614
-1.427572285046212
0.9965821926530374
0.19847243552209842
0.392020366981025
0.31093818361307274
-1.0546424831882186
0.2887793185826032
-1.0302309822958036
-0.5834950918471893
0.059290291091791514
-0.5678622526345798
0.9734917000025902
-0.2374687152231838
1.093911115304548
1.0524165246951247
0.7096279412917144
-0.25332038353565073
0.946753127344381
0.053803642940247885
1.0123783114498879
-0.5678529398863454
0.7581431057602115
0.02673471649530679
0.3012536564293708
0.7597533910081775
-0.24260857206331968
0.7750784619625434
-0.2259445431549923
0.8383090140661622
0.847846427679788
-1.1888678322823387
0.22588566512395097
-1.0422752472588435
-0.3801511171076277
1.5719709984056707
-0.8976111509005855
0.9290786572435767
0.33313742092026327
-0.670084316585381
-0.9689294927192301
-0.6990334813397856
0.32749626556845285
-0.20331064504188295
0.743328918169688
0.7388073440250338
3.0709975044802347
0.5132702436826388
-0.3876107914691642
0.748637310669529
0.8565086691929171
0.2415947292803943
0.3747333565344168
0.2717444311399316
0.18887181937068354
-1.7564686198545085
1.4683720550438328
-0.4746561509350156
2.099017928850858
-1.4221593773043404
0.8237544603774871
-0.24603204273879342
1.880986264135632
0.4354295036411215
0.053955257983372806
0.4066827075706457
0.8905689610286716
1.0052749667646337
0.42144598351671464
-0.651553508940477
-0.3018485306117498
0.24037210185223878
-1.178552570554083
0.3152841503514648
2.092220412960419
-1.1383987828927438
-0.3600858600220107
1.6999452660684182
-1.4257770533994543
-0.1735869927782533
0.2319065464372231
-0.21315837571881324
0.97395465954493
-0.9678141908429588
-0.4903293874573923
-1.0623719075062024
-0.49459041216966926
-1.0770198033632843
-0.4188050182873454
-2.872265088820401
-0.8434832919756896
-1.4814020827545118
-0.5492798607362266
1.7364839484563612
0.011568814017856319
-0.23078613063229497
1.2635584464094092
0.632531093287693
0.7486839596149126
-1.3666932823143814
1.6171453874738644
-0.3642793781698987
-1.296097593715331
-0.3957637362740182
0.2953693507690447
-0.5712073220232364
-0.44389431769806437
1.5111642506647829
-1.4547821830122862
0.8644214674216175
0.7234951036539543
-1.1616683212204053
-0.7947693206070872
1.9364032552926338
1.6869541619882442
-0.3054410466749103
0.23526582137963487
0.002729475202245424
-0.9118723447705499
-0.09885666216141689
0.4493759921886129
0.08597732412296917
-0.6950602387747151
-0.38731308827351224
1.255793545112248
0.15789656913741976
0.03971019168235568
1.3545181329805642
-0.8437536647332414
-1.2257389075078045
-1.9305906398086852
0.45095182998027056
-1.713509926548413
-0.16459298489145657
1.343272991780302
0.5700540379508404
0.6708806105949474
-1.1435449263911692
0.7851667133863335
0.24992242457785027
-0.02573187825041284
-0.09154695201024371
-1.108675845972647
-1.0702315528350015
1.7914002683319976
0.7168481952028699
0.8201252510184991
-1.144742574151262
0.5001103644631141
-0.370335821559053
-0.39733250265793496
-1.3352487040878858
0.7638801518211111
0.5450906982220091
-0.41490823668412996
0.7287347516673206
-0.7347079532851339
1.082353997774888
0.6362389778359362
-0.7977309770352283
-1.1575323307221448
-0.4217233776817401
1.4683900304548894
-0.8924373411370532
-0.44570464705944896
0.3980559410002689
0.5275838560758752
1.2458380915958556
0.5759989597037161
1.5137874792781998
0.9184407352999437
0.6970793057652421
1.0616053589534573
0.1577545891669626
-2.109086925601256
0.12313178419296036
0.7759983006539246
-1.7031822455334777
1.9447361858385197
-0.572275302220541
0.5667693811525627
1.393033205166524
-0.7704560978107089
-0.7319852892355859
-0.18359247451869878
-0.7864307143709433
-1.0721338066293158
1.0318863015058521
0.14939788308069082
-0.07986632336993083
0.3451117556428711
0.09851824340665684
1.033062691174716
-0.2634453687687728
-0.2516009817542171
1.121220794609428
-0.06017752344848076
0.286092943698445
-0.4488647767055047
0.5359739098125129
1.5963161517591309
0.2110325972945897
-1.0310871152839163
0.9379046520962895
0.030359364131497348
-1.3987426954781135
-1.6990122681690336
-0.5084223328367905
0.8612119411346566
1.7219987296446957
-1.4436137962732551
0.20883818019511521
-0.5129865518072463
-1.122968145376708
0.8579296301138908
1.2148203903039394
-0.0923906407377088
-1.296958493287809
1.5820613237018981
0.008766071909680482
-1.1374710281053568
-1.349201585904675
-0.16852148097825317
-0.26629344805524324
-0.06985740508266683
-1.0487730699823794
-0.33184516959956706
-0.8375236988361474
0.45907008907288294
1.856960910099122
-0.4940100054282141
-1.126875954001743
1.299005460240281
-0.898500744231432
-0.4779129346199666
-0.8701339723385494
0.36865077661351003
0.6273042756239493
0.9349809576423889
-0.6631620050873726
-2.2258365971614946
0.12737296104421342
-0.10608229200108694
-0.324292235415461
-0.04942243560970471
-1.2102384678518763
0.1774059209496253
-0.9277930242333291
-0.6758898996366076
0.5140836387263998
1.548872329116677
-1.7019955507997209
-0.6352825029211395
-0.07074282747316683
0.365132347527123
-0.07745365953934757
0.911784801610301
0.9287798835758658
0.9668733040647647
-1.602568458127503
-0.385178191867566
0.08906098631504773
1.8702101113713183
-0.4637214923056559
1.3224423934854754
1.5889977856743556
0.4502789929845741
-0.6516529675174509
0.5632337391367839
0.11647327209181155
-0.12686544902661895
-0.7874497946258285
0.014699670897807965
0.2784729775609343
0.04565289853000015
-0.16456128932761088
1.2326452892550899
-1.1098981256543479
-0.3316734971932292
-0.8055852094661184
0.644590017863435
0.34678579722410435
-0.14805484571899927
1.282021907871492
0.3342896536822215
-0.6461989696343403
-0.8030638746397607
-0.9188206181758873
0.13762807667674146
-0.5652163378371142
1.488889011219551
0.13063494308965484
-0.9133157246220422
0.9197264549262176
-0.2700502045341639
-0.5063481044685366
0.08326512152814906
0.46544958119364804
0.34199261439303347
-0.32678716527383245
0.7033966801622336
-1.483342453912292
1.234819550020123
0.13639706300645243
0.20764736539826573
0.059757487673897214
0.2687463218982888
-1.3340622573202514
-0.23143631772946416
-0.9195578311782378
0.9471440264840163
1.047162455648147
1.0154056460685217
-0.4566760642754871
-0.5002429149087492
2.2584455738269993
1.319714118368308
-0.29669378096127336
-1.4994364265309816
-1.367080651209488
-0.6889441279486525
-0.9873532842828358
-0.8557087542625298
2.1932256698260235
0.5557335467501305
-0.3089980871294427
0.3724073490159356
-0.22150963461941592
0.5155724400129467
0.5798493076125515
-1.3369010468117946
1.0879840051323422
0.49203341357608693
-1.6606889309667925
2.057523962376972
-2.0034516997237635
-0.18651549014314392
0.17544540520211865
-0.19144221831823266
-0.12037370607932292
-0.13232679387754875
0.26976630945607427
-0.6969109016409993
-0.9188702931997956
-0.9638810911441993
0.723659342603235
1.397487274818799
0.7338124220534054
1.27922972949676
-0.28883542331293044
-1.138758544150123
0.1368678341391087
-2.105363668376626
-1.4032225342855482
-0.15863612832974391
0.44110525357421965
0.5356843778552978
0.77574748294174
-1.3659795232610126
0.29457060967138515
-0.551553260696586
-0.6546709760906413
0.7389689435558084
-1.1095995916785506
0.8688958583321981
-1.5613837208875636
-0.8500026660396832
-0.6737023929162873
-0.9675271891375992
-2.5654222986513004
-0.3561633828498528
-0.6166408438434634
-0.42467589583016024
-0.12694294465535017
1.7444085895201653
0.2981758553321529
1.1318875883784498
0.2676752376533565
2.276270545295373
1.6251668220883444
0.34451971298285977
-0.08957530259685369
1.1273795361007595
0.9356715013051873
0.5224932630951555
2.0571350114343163
-2.303880108786525
1.6011072783275806
-0.7311406285232185
0.39176130577493434
0.9200482308151958
0.9745510802166835
0.4816063452009709
0.4983736597389078
0.7477482930708836
-0.7198603159751257
0.2852290781532729
1.1195668236550602
0.17038732161756662
-0.24861409448519528
1.648991104014997
-0.886899317237211
0.29786479115534803
-1.7146584737601598
-0.7212806905325503
0.8343805606984533
-0.3523346880634631
-1.1300510562439374
1.767116278658146
1.9952126947383535
-0.6561281112052821
0.2925889787144714
0.32717723457127545
0.10110049013822853
1.2661258509155713
0.02047364474362084
-1.1668937581520997
-0.10014008819977524
-0.5294424374813395
0.46984121099669557
-1.136954333426551
0.8212377360693586
-0.47062040938035
0.3865095754258279
-0.2525927416735657
0.24010890322220932
-0.4298381968675696
-1.1226989796423492
0.8902995758733147
-0.07094984815561345
0.1809207922500943
-0.7175253402584185
0.8142286458812011
0.48423864254623733
0.14102572435046834
0.7285623782450239
-0.30394824529298553
0.5639854194947667
0.7034397509599927
0.9871685591296233
0.7240587433220628
0.7216676826369569
0.14956749148506424
-0.6181981307087666
-0.2241952230477636
-0.3342989105146219
-0.6111739025971963
2.395530811709607
0.7737004135412706
-0.5279292117367573
2.1638356214238037
-0.6090779111874298
0.557398364278201
-0.4466637243741211
-2.4539826032985093
-1.5116777484895698
0.7141115317696095
-1.714063587618564
0.05081106796842544
1.2014078981171323
0.2877967000483887
1.5219666572223567
0.5122583508757202
-0.5436401449618614
-0.4951939971018111
0.24541059007529753
-1.1138795609076788
1.289034929247287
-0.9576647652839254
-1.232216584494602
0.15867094308673768
0.5035658251082443
-0.7619251751738149
0.35583594727183077
0.008388023670619221
-1.0951635117650502
0.9821468269843423
0.14195044636920195
0.9331656170954705
1.2083329889284853
0.3020365877247923
-0.8977866807915656
-0.10626205128378587
-1.0082122774779587
-0.007592475432457495
-1.5039076350012173
1.3043230315645955
0.2428638431798156
-1.459846739844466
-0.0579639557449347
-0.1466939713240879
-0.9877842257295887
-1.4201035386584064
1.3844986644514188
1.1275823757379049
0.8628041629960748
0.061694432555022605
1.3063056099477313
1.545679322510148
0.26551938837680833
1.9614494596694179
0.08410159960166536
0.24595944326662567
-0.09883713374064096
-0.5426107859775087
-0.200125762944652
-0.18007631366684135
0.5417583533067023
0.8267994924465929
-0.11726252375335466
-0.3214172199422313
-0.32528678386268084
1.2783719181595594
1.858613665546587
-0.020715978402298267
-0.18259366880218944
1.4087587604403973
0.7893987610304027
2.2928929478109135
-0.9950622884308155
0.67786790621783
1.3636691934470477
-1.3608864298356695
1.729818040608043
0.4717837524754695
1.42112557312213
1.5043204014185827
0.8022279663722607
0.21676915835082344
0.255665280111581
1.5831464865266471
0.0221525439083039
0.5746188967662831
-0.582681116138104
-0.6348979709679607
-1.2031641623106057
-0.7632890600371824
0.5140873120367376
-0.12909490830495962
1.4754994645525268
-0.11388524042539644
-0.29932317071374404
1.9744585280187679
0.7818536395247397
0.12551248950732008
0.38654857995658504
-0.25432174664498985
-1.1264825093071602
-1.046538207955939
1.6923756000351262
0.007031721324705836
0.8102844337701428
-0.7904352702220927
0.5815298046392036
0.22343006637611942
0.30153287123468087
-0.3562342436186362
-0.7542332095332898
0.10178400977366148
2.142907267010545
-0.7309777291490287
1.2192850197901945
-0.5821513796829654
-2.0845231671844875
-1.2559368415584733
-0.24131153968921246
-0.8734383619885915
-0.5317206729919681
0.11749395693019549
1.147645773806018
-1.011952651626842
1.2548494607475722
-0.43430902491931506
-0.7498510193040757
0.045938475854359034
-2.2735791326113612
-0.41749915073340976
0.924913941877501
0.6784400724348181
0.5188404851781385
-0.32804384317392865
-0.9886545513055822
-0.6776464484728542
-0.039587525208568036
-0.10498661433479523
0.5074297195591694
-0.11595464610873617
0.6410957524909418
1.174225483071251
-0.7648060459198077
-0.07443113030799406
-0.7636977620451468
-1.0940337911895017
-1.2537524411812153
-0.4848954592677809
0.8037756864027716
0.8360719612148819
0.5847758114192413
-0.38289500564686146
-0.5642465693509504
-1.782233707902621
-0.5102125908506129
0.01704516669793556
-0.829331015586281
-0.5538230250767563
-3.9511777334626637E-4
0.8170558491013354
0.2578278506345161
-0.4492008427179796
0.8320294728168596
0.204221696853375
-0.10747070605245326
-0.32644211658198147
-0.24293495987655891
0.22209445271860845
0.505725435989976
-0.4835452778954323
-0.6888253803637754
-0.03414523619714614
-1.3749664566241715
1.2024960835156198
-0.18785339085176617
0.250171402380926
0.19483760083586563
1.2882199030377226
0.1806632736421932
-1.177365210739803
0.06056507490948885
-0.023086983198242872
-1.2186414787748148
0.5258171064084693
-1.1644861643496989
1.0708929851953093
1.1695164823580169
0.21326454274950296
-1.8469360675653566
-1.149602930423196
-0.7978190211260948
0.25529470540438026
0.08466271026219226
0.3361641403679596
1.9262837273735163
0.39770686775595765
1.1997504547410272
-1.4358651322521352
0.7476353296014058
-1.3467565764602687
-1.1357351639424929
1.9594097267550155
1.258500835601284
-1.0146908016196263
-1.0863831756555293
0.02060016552174895
1.2228331532427676
1.2726392843389946
-2.2660043287607397
0.3979727789964563
0.8357325161187705
0.9868685141641331
0.15843051124915683
0.5082421573112011
-0.10782604441670576
0.013539918959951963
-1.1552940218294228
1.8049079355696642
1.1413171003340452
2.354664447979615
-0.5479121308930697
-1.179487674754212
0.22428327731939157
-1.649858657230827
-1.2465258603284917
-0.904138144996233
-0.7016608589517106
0.3896571494331369
-1.0119181833433348
-0.3455044058480383
-0.14246086786326229
0.543456943262971
-1.0542657880428694
0.9752162172208381
0.5326395253401502
0.43532706829715756
-0.10156791253851705
-0.2992040602400623
-0.2093714162179613
1.078469825455182
0.19100378493122383
0.11968219136751712
-0.06981748566367485
0.0404522886999063
-0.7959239817861627
0.9837521646747112
0.04540939652227843
-1.1950802382580137
1.2357169954734102
-2.677223505381744
0.6752507464798841
-0.5111950701219398
0.40205382465556083
0.001000552287030782
-1.168863682094234
-0.10544692803485214
-0.6138696334603502
0.34873519067866343
-0.05543250822561513
-0.05324707547146796
-1.0328081869220123
-0.4789243295543628
1.6110678097621962
-0.1909853461614171
-0.036298982919583056
0.18113162271572786
0.3450194223251528
0.10188252285190295
-1.358389801610005
-0.46826371431864083
-2.003827625461069
2.367763814826054
0.0515404875285988
0.35365463965591715
2.5120384150299455
-0.19629340086713615
-0.5965667107713684
-0.37263233632030635
0.9038897648377553
1.201276113972848
0.6466549755700542
0.4649099674451277
-0.10123453828690844
2.1163463782185654
0.03666554362132488
-0.9074725057108457
0.3511724183615306
-0.15144238897033432
0.5186162836306232
0.9297099586339608
-0.3513141410372244
-0.9821371386106985
0.15158567932717534
1.3818551547366233
0.5532605982467269
-0.9044231737287871
-0.5297946089260062
1.1078735848205774
-0.22000538606871684
0.3153166727496182
0.45612817417682344
-0.35238657713676824
1.014852418147535
0.5971924935907391
1.0605167984893227
-0.04264937294628748
0.10667527494457078
-0.13868339997202997
-1.595397913636838
0.2774738989894916
-1.4371816687740924
1.288093777993729
0.2614541668119333
0.8243986524673238
1.4889033075263465
-0.6855034922540565
-0.8560166479172577
-0.03400684743131131
-0.5929014176011449
-0.6715182320706443
0.2673185229474131
-0.7567451992533502
-1.7371482967695708
-3.056689974187495
-0.8813125021806439
0.4416404721897509
0.6360355508907384
0.1872760793193003
-0.3504493361320101
1.1505750080499215
0.3423752240775924
-0.7708274566193463
-1.0472685148163596
0.29571205196519934
-0.2502878704009863
1.2931837990252255
-2.0151159891092187
-1.184509579695614
-1.965598883328545
-0.037586930171120164
1.2531784606492122
-1.7255206483466734
0.7181152716117771
-0.4172350267941462
-0.3393116137678388
-1.1718232200752834
0.7295946077986584
0.46523028811746653
-0.03691375623732865
-0.5464566870796486
-0.5142527837026669
0.6802320981038428
0.30249768055061643
-0.49791192696674874
1.70444628299624
-0.8310757526517769
-1.3202802105224187
1.3279679661158095
-0.38289488189064375
1.0706978115210424
0.7699407870855572
0.3003982351512419
-1.0643847156207287
1.4007012415545042
0.9357365234336827
-1.1227842908080068
1.7736169751526487
0.579218567446381
0.5418972391486907
-1.0661184273458222
-1.1384447158010471
0.7535485109946647
-0.4663684300436006
-0.13456718612344043
-0.948055430520838
0.3760858807077318
0.16814341110321868
-1.2698605540894015
-0.18439358201469266
-1.4157369628921876
0.5290836239253918
0.37701350367893866
0.7578753453817835
1.0396969391456097
1.0576887206940027
0.6464546569333356
1.3484755227926057
0.7923590179777115
1.3881694098216306
-0.7141170287524699
1.3047942640370114
-1.1306891638760088
0.15575382537917265
0.24228189421926727
-0.17046992625806764
1.1429907543088373
1.0410517157431731
-1.8635966600939509
0.8111657875410182
0.6118563095745967
0.009420361778969526
0.8021708878992615
0.6941288790053399
1.2749423293691375
-1.412301001915157
0.15971156584015328
-0.949179432163234
0.6770125776416023
-1.0437197980275845
1.1781394098655498
-0.3761748875684764
1.0894657911152297
-1.6687408102017767
1.3566955700189025
1.313424126514898
-1.187764593976854
1.5647678508928944
-0.47465152410224826
0.961763928954912
1.4493806993667544
0.38424186837023466
-0.2863414828012903
0.8480347887801796
-1.1699925821511203
0.16922278099625893
0.641427537770924
0.32374134491029455
-1.4975475828372382
-0.2501662506293875
0.07673940186324613
0.32757601646280954
0.578509834417419
-1.5965073312566003
0.6459557387441712
0.3140187147103585
-0.8115456710765946
-0.9414441947824325
0.12532342206194447
1.9184629898490595
0.7304012002314104
0.050523425138442005
-1.2910449635024086
-0.23343136457097746
-0.5607128701213019
0.9623945298354453
0.01317973486952631
-0.433362431942285
-0.4840435212539034
-0.575331263378695
-0.9967158789397301
-1.40806762871371
0.7699362903628004
1.6145366292983698
0.24601958250173817
-0.953228720034984
0.18794502975029742
0.8019352706449978
0.08251762227662916
-0.14203476311166185
0.7459510684006325
-1.8258910923552476
0.5625162574711694
-1.5697377213176134
-0.5505511309447992
2.447358966853586
0.7174973243743992
-0.9786381687782235
-1.253505347242826
-1.627891746324212
-1.3453578112373668
0.04714132900287643
-0.5838175530381154
-0.4746583168846427
-0.8232898099013461
0.46963730476469134
-0.32671412485796536
0.12864985945852986
-1.5353432749108398
-1.1429468269888963
-1.204505440633579
-1.6452221749947284
0.2408128174722658
0.4692559365780091
-2.399609627561276
0.08120827737700932
0.37141536046750073
-0.8492213978071703
0.7992139022526756
-0.9181868130641879
-0.24459424292652474
0.3078492511916399
-0.5022343437075627
-1.76250501550277
1.7844756975381717
-1.915309775189782
1.014344144522802
-0.1323153280954154
0.5518729020929808
0.8538911172962518
0.40610523930714987
1.035221095187218
1.6282074072146078
-0.39019642810322014
0.2710364435764653
0.9224011263327643
0.45493032861100546
-1.0141079385548035
-0.4401208248250217
0.03711483453194844
1.9562984777984338
-0.45316478516944203
-0.8366247643411386
0.48436639142638116
-0.0803951889728936
-1.0407418245751863
-1.5321850769199896
0.10489984593543411
0.51682391123635
0.4231738917229936
2.6046950288903687
0.29112560383385916
-1.4021152897852658
0.01805909104645496
-0.5563642833255131
0.31608064713677014
1.6130216916701126
0.2477181842633527
-0.6870694624568517
-0.6775403213877962
1.441775566637826
0.49267043863017435
-0.728144519496569
0.12272716922478752
1.0468994429987455
0.08639516519818531
-0.5034046807866309
-0.7383955787027682
1.0575576186572726
1.804402192612562
-1.6959651264587872
1.2820330648649187
1.3879521657655105
0.9580716940823
0.21870247513782093
0.5622581559884561
-0.07616718726714061
0.7057333877481574
0.794856659475029
0.916808810167675
1.816226160347673
-1.0820856515222395
1.5868274425138917
-0.41407719508069846
