-0.7688710565247521
-2.3555841972292995
-1.1418061362768626
0.10375258550377142
1.0088192440025279
2.0026518990887414
-0.5756342197383413
1.0774938121757787
1.5392090035380672
0.6115676444865545
0.030146645972589425
-2.2817030612976716
-0.7791488955858656
0.7774350054390693
1.2708924383269387
0.19713845506014516
1.4791783658523467
1.8612572637030633
-0.26473809352065897
-0.36463087249653314
-0.7650323497076761
-1.109020218062921
0.206930569781843
1.4968790931644835
1.839492687914163
1.435093710306801
0.8587192861652948
0.30764661481455796
3.382151354018751
0.4364880434033808
-1.1879424602333384
0.420754187657669
0.3043819648931005
0.6023657112890131
2.109197573968472
0.5184901499621946
-1.5021380576137493
-1.0004072487378444
1.7918345776965254
0.4886191429911458
0.3848116503642011
1.370891281007114
0.19910519788836947
-0.8963182224954749
0.8070426256144112
-1.9689273221945607
-0.4057952157348638
-0.30178261220271696
-0.04051762963712424
-0.12519721589289923
-0.5510148711762088
-0.7224162007345385
-0.03864653646285196
-0.278637634090728
-1.3913311197336644
-1.3704939863071994
-2.623566946982546
-0.39805384512457503
0.9629698246628777
-0.5374931207172988
-0.6833777437673181
0.4618054961971832
-0.10446638370976358
-0.6059339791507057
0.3347167792666212
-0.02166167873875746
-1.2705001878191962
0.6280009669760351
0.26600988848909285
1.0293111593969488
0.038591376781045406
0.925921963218054
-0.4233627191470268
-0.6050223435318627
-0.5399694940913535
1.0053840643382295
0.20940278553724612
1.4925964748234968
-0.4973601854506111
1.3034047463150915
0.6989644114482643
0.10807620593301015
-0.4231100770939917
0.5281078738321402
0.08557761576173906
0.17278770411463296
0.8502141392975844
0.9658083343607331
1.1085127340675
0.02650931571780432
0.006810508483581418
-1.2233605874936668
0.5225443229841948
-1.32182221545124
1.1352246223712723
-1.0959152023750414
0.24303968809990673
-1.8652730802417439
-0.7679558990302666
-1.2764203275659904
-0.03182740151359745
2.872674106300469
-1.7519811393266236
-1.4549698034731795
-0.15547041070036974
-0.05586095576514116
-0.8267457980790549
0.9450656852083827
0.34090244193893054
-0.22360479314880038
-0.7603299144839659
-0.8902541711303986
-0.0424607332497105
-1.307301631614913
0.4132249785047972
-0.3312954545954984
-0.13247792013307308
-0.45394442006818614
0.6055872137163582
-1.4545837811499365
1.4313548842172645
-0.28487672814341
1.682582744523108
0.9290164008726929
0.7560299877042871
-0.9586141783789113
0.5977782801374429
-1.670468071579873
-0.8663058993672434
1.4913404137201205
-0.8087512006153013
-1.3190878915105535
-3.0030590202471212
1.889801395024838
-1.3636650162506179
-1.8652702437623836
1.4791861479541903
0.5524898909792462
-4.974573266067264
0.7053958406351548
0.18186271594285594
0.3367686038238707
-0.4257516026502839
-1.4593666478820257
-1.4897534560672012
-0.5160601580714653
-0.3851984611405258
-1.283384268326947
-0.6351629421769209
-0.1963617685767638
-1.523983391144467
-0.4145081874757212
3.342079571857704
-0.6038932395581615
-0.02033963544035544
1.1393477866324322
1.5573920965088048
-0.458840687511278
0.4257685193952027
0.9798314000801716
2.3402748871371477
-0.6366587853166257
0.1272055106573754
1.120102950198787
-0.6581087987865231
-0.2278070898315661
-0.39009646857208347
-0.45729784575919386
-0.20628460440562543
0.41038321993428534
-1.0580850872170122
0.3596176553360297
-2.8401233299017328
-0.7674697689846837
-0.25647578077282407
-1.13438890186372
0.32049056304549745
-0.8589743719523806
0.6906661478760519
0.12234960073052503
-1.0771840538023012
-0.3948950808709197
1.472828595815487
-0.2736239467403291
0.24039284391258606
-1.6343644410384512
0.6146753481607103
-0.9422698220799273
-0.8672295957320046
0.0029678847333244884
-0.8288084061365515
-0.396387008399947
0.21893122498388706
-1.6329731325021095
1.7028672112487138
1.6248727256120115
0.3687244348079808
1.0810266623344027
-1.7664555539475035
2.640348216717376
0.3617861688826553
1.187333236387031
-1.1817926536502767
-0.3990950237420519
0.5118403741351463
2.1671289638413493
0.9848822358292388
0.02991363389873858
0.9486569721331841
1.4694293218158487
0.16756263923185868
0.16338413169915528
-2.357585360074908
1.1648529772300964
0.9644997793592776
0.5025788029012292
0.352172145282432
-0.6697131755302137
-1.4377842564110823
1.7447063225304247
-1.7394222660030199
-1.041735524733441
0.06292908310846185
1.1271230675383372
1.2211976418394006
0.005798964291109127
-0.3713661020644444
-2.0704734217004352
1.5497764400163971
-0.9756221393759219
0.3330804124603583
-0.16450622395640643
0.8104213422739064
-0.1171198085863161
1.6475219439465234
-0.6153191894164636
0.44455796100532047
-1.2100112824851916
1.535306728069231
1.9397640438823616
-0.7371212430657708
-1.0598210973138624
0.3728248990347173
3.3720860716531598
0.29290234696673567
-2.4064730363092126
-0.01488317112760576
0.820576176121222
1.9183674268399236
1.0136651804207737
0.4153118179772753
2.403931029337437
-0.9559789210367504
-1.0988286734434831
-1.2638124122979886
-1.2481234197450133
