-0.7944187358851091
2.2208701696810755
-0.9667881584527793
-0.7697628111296085
1.3590264451855312
0.2868139985417038
-1.3467059435592283
0.5618262379015229
1.206649630849532
0.7873908008019053
0.3224619698051783
-0.9822755594318384
-0.1267808114128287
-0.6626851983467141
-0.20623367476106486
0.6629970523780865
0.616152011527946
2.410043145408286
1.343190465832487
-0.37590916448108724
-1.1757171455341204
1.6205557595778033
3.0688446335141455
0.19861102824607246
-0.2876049410044961
-1.2109494480820882
-1.0649352400257306
-0.8739324744755304
0.9653732206547792
-0.11325428887386853
-1.2941206554412306
-0.10553876743913994
1.0270002506967966
-0.2458840545048819
0.2815289489743522
-1.44098156342774
0.2504244115680505
0.014656107804999978
0.021954326326817736
0.19179714878690982
0.944064050800135
-0.6813597125644737
-0.22898618191399256
-0.8700726301910475
-0.3576311556936828
-0.8180122895973616
0.9381574486440627
0.39149154737262853
0.10160154861118936
0.19528026045856747
0.8932613464615708
1.2125458402677316
1.3929463780235576
0.7131949182443029
1.0122195226520507
0.8660652190074785
-2.449671088324252
1.502492125070649
-1.0258571456260028
-0.656728569988619
0.4979306857743616
0.0010058312432577043
-0.7921712318600849
-0.448161513035536
-0.5956140718644379
-0.3665117103376735
-0.5945676323221093
0.7277992325082177
-1.3113061019346075
-0.3105802583909345
0.9142597840348692
-0.27709716193604333
0.4044064424274322
0.350824159319634
-0.21966645574085208
2.034174438020155
-0.8072322312490174
0.17598905043593815
0.6371915047074177
0.19871521191994979
-0.6800331492662226
0.1427536890522974
0.14120133072773935
1.1569686798197616
-0.2898044871396213
-0.12359349531030069
1.5833446933348718
-1.10218351973207
1.1070518769418178
1.1188869462773312
1.199455990778877
-0.8508084198196206
0.2470260320798604
-0.613487371969963
0.9651062569815785
-1.6627860804880605
1.0879002326576281
-1.3844911148051402
-1.8653494259384265
1.3721646260983753
0.4941257865185383
0.8480214796175433
-0.7749703374295733
-1.1729068882485185
0.4663027580875215
0.6807974233952565
-0.22179735333130704
-0.5507680104686676
-1.2513583643656705
-0.7948708591487748
0.18335430762524363
-0.9531048751991515
0.7250609563258896
0.3838619247113529
-0.9448128951775606
-0.37755260579445643
0.3157918885680761
0.42168557870054607
-0.0723718198881771
0.141936779709813
0.7661266128474151
-0.3673319756533053
0.019867198063592495
0.3467795821684379
0.7519298898595872
0.4588103171271559
0.44665636832044914
-0.4979014641032787
-1.556828557305102
0.6644045344607357
-0.5693245191242384
0.37600434564893026
0.6046233109845406
2.0301062229573867
0.4028931197003995
-0.5300363618957795
0.34037853991349776
-0.4060212167236279
-1.2745907458962933
-0.9260800220470408
-0.014006007109251054
-0.48954841584051795
-1.673040508814523
0.7365467414276323
0.1604166687612617
1.0353071957675433
-1.4469113628320815
-1.2943016928377535
0.5796805775510399
-1.5117635723348357
-1.6932631093309263
-0.7026285304978204
0.8371114805953128
-0.3927509530644774
0.6523481581127393
1.0452495945333644
0.4846796261677003
1.6793316356512518
0.48780127066410933
0.5465631336296306
-0.9048612642946707
0.15459203107361547
-1.343348308531015
-0.8243764331122753
-0.7638686761270232
-0.3925424739035505
-1.8987282925014148
1.1916689012418409
-0.20252906709266483
-0.4069921700666054
0.4403964152413747
-0.9609617929787047
-0.013411205845752538
-1.1038300618373518
-0.9855052245652345
-0.37563413237107196
0.8395210045610354
1.177825254784705
1.1996642080754154
-1.1296143394917086
1.3731229491236494
0.30362599115839367
1.8017780421099945
-0.06678516885327673
-0.26861947415983073
0.5364262158575527
0.15455098422725275
0.03840287832583439
0.26455011200835854
-0.7867001577925391
-0.592438924842737
0.5148311952044213
0.45287904846633836
0.26200408996991714
-0.1854004999661032
-1.1491995887844584
-0.2950809267046997
-0.10343903964764692
-1.895989821703992
-0.6285800083042802
-0.32688737646335736
1.4705254721228145
-1.0315714474916002
-0.8274014015984938
0.152029150940834
1.2884079509139275
1.1993735337884874
0.14287157380366974
-0.07866036493599339
1.5557530241803745
-1.0571006695933356
-1.0256791430107433
-0.893121213729742
-1.1414113009401297
-1.5990523212642598
-0.38153246082011383
0.20916366025168773
0.0020788429322878277
-0.795831864189176
0.18558616046881635
1.6868827194636862
0.11444177257960275
0.3451379875770149
0.9941091773761227
1.1513567204187378
-1.1952963229495344
-2.5304113793022944
-0.06276292575467057
1.194495921591705
1.0816146964168067
0.4423760453691234
0.7779415467080478
0.006356268740355129
-0.9606644429729296
-0.8501926728741287
-0.16236227974468714
0.2795631080520277
0.739669688965067
-1.0724992952253047
0.8275889165670153
-0.2543405859112985
-0.8332750972560301
0.10965581360006081
0.6522484902426844
2.378825208234148
-2.7235768253203014
-0.7666079699535793
0.4848345073983718
-2.246916570883996
-2.6039173344880977
-1.3562965959714983
0.024677914014499536
0.10291488450708197
-0.37680907932841606
-0.44097440995723314
-0.5506516418123414
