1.0396826303677222
-1.733406630696946
0.22453627825616787
1.1196094000434473
-1.63919093250509
-0.6475898020893764
-0.6826490975075705
-0.3145918488892578
-0.4118332390327176
-0.6901574641646915
0.47881911347065803
-2.0316594373793317
-1.3935938432341257
-1.421957994960181
-2.0325181020172662
-3.8813677057589504
0.17860912321044942
-1.8810944981865867
-0.31067799475310043
0.3463780877162356
-0.4485691480535937
-1.316570159611798
0.05647425243180615
-1.2537423108584282
-0.04059319913467155
-1.4427244111974067
-0.14209568117232096
-0.6545649849443647
1.6418278196081426
-0.6113474268933323
0.5707069434843901
-0.5678673277693482
0.03583397618446585
-0.8103128198743943
2.7432059424115884
0.3497368977197681
1.0410310731189771
0.5332466670250553
0.469912328452413
-1.4463810423769663
0.731027262683823
1.5766971700094152
-0.20251603158268258
-0.4608623025597966
-0.7051485032236435
-1.05786035929829
1.1593530663485627
1.6668418813784815
-1.218862073367215
-0.13214350140316072
-2.0962231117826184
1.8912505150978742
-0.4994234765069627
-0.22324280066048832
-0.6769471286197588
-0.3020049781060889
0.7691811538537427
0.6428290605784956
-1.055422803166263
0.707797621645107
-1.8200624527405467
-0.5667813092045841
-0.9623536380189874
-0.9690549397510742
