-1.1972515633511835
1.1217226874578077
-1.209070373872577
-0.5710982757660226
0.14092414045945512
0.2688253618309797
-0.24938030758706362
-0.6853461430143253
1.7778656997607092
-1.397445390317957
0.4578211869478736
-1.3382369948200372
-0.9106726830332863
-0.13249345332373086
-3.1519736445844253
0.17925528317756773
-1.4509435049513855
0.048323862445302124
1.3315189950220558
-0.9036968535333723
-0.8191531051571495
0.1667712927713295
-0.019716176824344983
1.0036492555858187
-2.983560849011651
-1.5315319608273634
1.7575574284271238
-0.21757992948411198
-0.15915075650313468
-0.9618077466566539
0.4190069164010697
-0.5140307330242924
-0.7684309317175353
0.6931647120856834
0.7252633383304805
0.943084434448435
0.8509745508370696
-0.6243494476173315
-1.7049112321722317
0.9769051587758455
-0.6219310109315557
0.7884485972495283
0.788830981559775
-1.7121042046321704
-1.0529618546954527
-1.665819989592883
-0.3596713700046872
-3.358063983148856
-0.5416444653598157
-0.0077101774110483745
1.00581049307085
1.8695158933521123
0.0386024769802997
-1.5151145355249342
-1.0323047899179691
0.6422220169966879
1.2263812014957292
-2.3129152824493184
-1.8499594509987147
1.862449598604485
0.020223265425844766
-0.3100754197101513
-0.9483032435690086
-2.066101537523008
0.747251191883451
1.2241280026320116
0.7812543170921902
-0.15419446537092377
-0.7875407410312867
0.4530215143770768
-0.6402307934458913
-0.9817446012556494
-1.0172321614426219
0.36124921826301704
-0.3488816378673966
-0.46385384107607913
-0.28785434973438473
0.07917786575824248
1.904555170649435
-1.345911902561487
-0.038250735505592576
-1.492640155519814
-3.3374055137983567
0.2321827365106193
0.7749230823999262
-0.6668499161627339
-0.8738997900253962
-0.9275028308959237
0.19442341053488088
1.9985363986111413
-0.5807590883137559
-0.5322958249015903
-1.1623356609338855
-0.305502471986976
2.1781717002671748
-1.1383839625685657
-0.8874023409187419
-0.9793091214365917
-0.16361532718803773
0.5437062116683091
-1.7145206916605031
0.6664320162474353
-0.7576264822369245
0.4547236646065251
-3.193619731905037
-2.2746560832882823
1.521585744993163
0.8305227264042596
0.7773020650026684
-2.366854053884444
2.3345528518666208
-0.2845007861919606
0.17455069437438003
-0.4455732358045345
-0.502924553777049
-1.9906284224817556
-0.9149865250720957
-1.5608225741965545
-0.5808826491329326
0.5992095204689571
-0.34413514591092537
2.4387206815025264
0.7068195737441683
0.1109023673171618
0.5763092831269687
-1.4254798586243935
0.08297712828684295
-0.11382927092314732
3.0911292213083748
0.36647720056336935
0.16732261834761467
-0.2416643378560894
0.5293901165573374
-0.527755572826655
1.345055120445023
-1.0808841473405266
-1.5949058290468991
0.10970095469120267
-0.5877667957337094
0.02524796366018489
-1.371669620093823
0.4159308889055212
-0.18801990515307615
1.1776447285966543
1.244000019435834
0.8841847672590277
1.4580018300697073
0.27601345782544084
-1.8485320176779687
2.3243730040596544
-0.791315038207355
-2.2846345461929576
-1.2582662297941136
1.3027086303782909
-2.0275027360807534
-2.7747634522866944
-1.1609560588396346
1.01208190838759
0.2624131640879671
-0.18659697723141505
-0.04086887316437246
1.5954399332252156
1.1039835996507732
-0.17692905204850845
-0.3437740582856862
-1.1028761415314883
1.6938756353841078
-0.29685760659800253
1.0215876991006274
-1.3435686822280712
1.8310024647678262
-1.017303365359792
-0.5165519599771407
0.9030178158990236
-0.14646357088637252
0.8121063455710591
-0.40940541680140646
0.5047305449819273
0.6978670911544236
0.8967040541863711
0.5134104884068846
-0.10875035577462733
0.812687135961919
-0.15764284981062654
-0.08667223279449277
0.8443110787185117
0.9635324642650678
1.1928804460618225
-0.02249980984236477
0.7843295582197356
0.09140748029738965
-1.3472454621174403
-2.54729406047315
-0.6564023165300572
0.049473368228733466
-1.3779489494418833
-2.174116325020402
2.0867311206580283
0.06639699588743819
-0.6805728198769465
-0.41002842263850114
0.43318673302194205
0.5857737932123774
-2.3948821807058565
1.6564955895412488
-1.8131263820077224
-0.004449868132395646
-1.0686396614451708
-0.4657435640424186
-0.7073751752846873
1.5603986804304837
0.7188666137350248
-0.40658900297912703
-0.23088605206999796
0.6135593315435734
-1.3310217893793097
2.4295169641946592
1.4341552467505823
-1.4043637180543493
0.6742967992995983
0.7219951835502418
-0.43299003134805164
0.599818216843071
-1.775428612917013
1.5172986254332872
0.6347354850456364
-0.19332818226949
-0.220434698026292
0.5702137350091412
1.0522853296163661
2.1332093458016046
-0.7561759090945794
0.48740154314996736
0.19183855241319164
1.0973307621722443
-0.5754493710268793
0.3974411306749161
-0.06547541616782065
0.4040010780048292
1.228292113884632
-1.1335789553658548
1.0536426499766784
1.5673659562185027
1.0217602181566654
-0.8975795931549946
0.5310875798441206
-0.5924802862450069
2.3417863238165277
-0.30631578793044095
0.14662519061035828
-1.3953482031996254
0.6779395720903021
-2.5415839338352573
1.244608604001103
1.6103103507274457
-1.6365311507772797
