1.4097846850831002
0.20478057264793503
-0.7933417975950605
-1.8005328366552285
0.2963693866909106
-1.7436151431713633
-0.6072592014969562
0.6135309019761864
0.8072627217954056
1.5795692766629092
0.4890631287096461
-0.8333770136051282
0.7443375844565913
-1.0792279633878274
1.4191816450972417
0.5995749466699644
-0.31630499063990153
-0.6780332765378132
-0.8362260688762991
1.0843533638367833
-0.6295887895370402
0.30084666281338734
-0.01973310318737756
0.059012026249498695
-0.3144613774492749
0.20918084012898497
1.9754495649481816
0.049800056269430126
1.4547130005490756
0.7817192839380127
-0.03021047956041989
0.35254089047168397
1.952309999410162
-1.696383217555798
0.29426346636355705
1.6247482299806144
1.1854813269436566
0.2206991386951052
0.5835948856172839
-0.1705446356087185
0.7868373945431137
0.9039490870983873
-0.9869221015252602
-0.49972098048997277
0.8111332113816687
-2.888594600897714
0.1758826069429909
-0.21551640255406676
0.5177245326264203
-0.1398383705969698
0.40760702976631946
0.05743323612217121
0.3188013688444934
-0.37191652562899363
0.7167459286170905
0.9951282582826806
0.4172225451829956
-1.72022977889997
0.2181471766541475
1.0156640132172547
-0.09886338992658812
0.2530534505188554
-0.41742502359820854
-2.032070695184074
-1.1140956123947585
-0.6957567980825854
-0.6292316775465703
-0.3279118755441797
-0.6532588473553229
0.21508750193603005
2.1481070677277736
-0.47469446980682584
-0.42830063163000937
-0.808991951589123
-0.523877629652714
0.5476309654335266
0.02745979199317101
0.24035186999829367
-0.15142139678130245
-1.3537773552932686
-2.953114369420056
-0.5325606452582361
2.504843504529052
0.5218841581322113
-1.421206996903749
-0.4981198661997918
1.2321248682526278
0.5782303249660394
-0.28439877989059
-1.1618863088739013
-0.9250097307577216
-0.09307335338601452
0.9400820225895192
-0.34710878921945093
0.6993315031609315
0.9037840395676515
-0.6530420014829907
-3.5454750629952945
0.7671375316761353
-1.138385463970484
0.19269898767543647
0.44370540399344044
0.011049847491480233
-0.8052160838088598
-1.927414413179094
0.689170765768001
-1.7671100883200688
-1.2871664859634258
-0.709739184112429
0.2371111991630132
1.2232808488003857
1.309672428944902
0.28248575838854917
0.8514556900613566
0.23453832616260264
-0.07435648447984128
1.276355113911587
0.10570785018672267
0.8154057231931262
0.4630062181393916
0.43150968615594826
-0.08625342783609727
-0.9980755670985983
-0.41655237979226645
-0.28924701908003936
-0.494657963241475
-1.2476116995815336
1.53188207921314
1.1403622421131434
-0.10882313787358669
-2.9084840978700504
-2.64688926697909
2.495022011309129
2.0165195814351162
1.3066622989838625
-1.783881318011546
0.7023955037388698
-0.9680136312805838
1.2666794237237793
-0.3285753597278377
1.2111462392461132
2.441057955547193
-0.3840532831718083
-0.13777586114667323
1.1603302068286587
-0.5213796910139346
0.8886664211396242
-0.4009696828181909
0.34885860218819714
-0.19598130152552862
0.8617884404479785
0.18549918535700421
-0.41354492093521056
-0.45525523735508183
0.6154707926420983
-1.3104000896844614
-0.3791975460056179
1.4170511469598235
-1.859097661714184
-1.2315563392791542
-1.0073868063997262
2.4293827153966796
1.3177389491752485
-0.5253916958978639
0.43176425751984654
-0.6076039198225407
0.4599001368332644
0.32097660000012324
-0.4264783383649707
0.12100672347758651
-0.11098368352416121
1.5993952504744173
-1.369755505524718
-0.33309969455675004
0.12868820191999408
-2.615919399960171
-0.08184269284990975
0.2888046637500681
-0.24776431948424904
-0.6201735438949818
0.9292174200503773
0.669373044709253
-0.32743891757296445
1.287864200909955
-0.5933348206830807
-1.5379860177633284
-0.8362835996140939
-0.2656854669848101
-0.572678660948317
-0.6123036765658354
-0.8115898717430239
1.5363760674093232
-1.3233520306527145
0.7681496423008225
-0.2833535429991973
0.06488111724953244
-2.5235110811146164
-0.7810236430984627
-1.3184786707749616
-0.24718427623208183
0.2198660321830993
1.1862714440930673
0.8738596963074496
0.2666871528281845
0.708827113168327
-0.3799979932277629
-0.5352289610861523
-1.4934277666803915
1.2939441248484644
1.1518032586816134
1.3124982399025027
0.424555356496539
0.35155211960200805
1.5979728475483228
1.1172605290486326
-1.0581240064635944
-1.5005601732151959
-0.03882887383236866
0.33323245421368725
-0.9335387145834823
-1.1806457632589082
-0.4481784905056189
0.6733079122255136
-0.47715903073171245
0.2265024318067596
-0.7784445753031715
-1.568149954412052
-1.191226914354749
0.12385339087330648
-0.3246461604493997
0.21806014609279084
0.17159371229818554
-0.1178650084340978
0.2255089420742492
-0.7565507855078659
0.3249764499283546
-0.3122465196400333
-0.9692761040009318
0.09206882028068186
-1.3442158172143546
1.2449008144944875
-0.7769902006759319
-1.590527716231525
1.926516960733895
-1.4672848530591476
-0.911322492582285
0.25497952232614973
-0.7088327021502362
1.528253356634933
0.8803293811262269
2.2524911142858604
0.7584902592791946
-0.04432573305143546
-0.6218317234115388
2.1309480189406536
-0.8905411453929988
0.4432396944392836
0.5176034973181785
1.3214333863772787
-0.12913299321252178
1.4743118567512081
-0.09449759822156434
0.8068927042440388
0.6543581065000845
-0.39465727217830643
1.0217897139208103
-0.8147121641426611
-0.024384500968706712
0.16770246808965994
-0.1829306699633845
-0.3846940646292373
-0.7187746651984048
-1.2689481888980974
0.7040235009138087
1.0313388165306887
1.1923509591952042
-0.6420559007805461
-1.708324290586754
1.8559570693597178
-1.0641641236361037
-0.350559546189578
-0.022496789932036264
0.1974723377564203
-0.43621718052817177
1.589657906618623
-0.8056938714125732
1.1568698620763553
-1.0690675858171228
2.056929885886157
2.264237451809142
-2.004271226641115
-0.16128610395648846
1.7874901389061033
0.43564860428742386
0.14834759287862198
-0.13841983263952298
0.7729572981661832
0.3400851501993258
-1.3629482761999896
-1.4216962823559616
-0.9817514131001592
0.19515067053032534
-0.494141404531513
2.2592480984186323
0.6234649480908461
0.044035104747431664
-0.08884383457452588
0.3869165950311464
-1.736697131108723
0.6817799462935263
1.3785904224310448
-1.188075611714334
-0.26180910135987834
-1.6819047138483556
-1.9406063869935608
-1.57137797258885
-0.7519336582881733
0.3240143678865155
-0.9227065523864496
0.6492197960695777
0.7245891403349909
0.6325534149130597
-0.3479722774933314
0.8460920480570744
0.34810528654502526
-0.8979479503135197
-2.03327456866328
-0.1703614425912341
0.8222925308661746
0.3025016614530016
-1.656820691843544
-0.1896460036411593
0.377944837945497
-0.22746494124898747
1.37684660955543
0.3680130885853902
-0.30371816002184326
0.5782182245946513
0.7137410063191334
0.6942537090656813
0.4532531785561987
-2.301550056991217
1.3736483527175094
0.2930870416558
-0.8593700207339514
-1.4207083040707766
0.22163346374631718
-1.2311219468417756
0.3202374669627434
-0.4088248661500801
0.22943689338053122
0.381832882013684
0.9604683493278672
0.3129232820874641
0.5157546244560006
-0.609026628401971
0.06123840350511828
0.855458442012867
-0.7150758757044622
-0.15430775085724127
0.1342407652161981
-0.7285716520289846
-1.4374475564663702
0.11618646885465066
0.8006761825801147
-0.3492211043479249
0.21318699135497324
-0.3892760691331756
0.8662653647915103
1.056345843505053
0.7470043346145109
0.5147714455444752
-0.5818463900114882
1.6784911715444109
0.1116757931618714
0.015618127050382315
0.4241188462062463
-0.3422142951515689
-1.3498749039453057
1.4268758974782454
-0.10499707252291562
-0.35637425461974065
0.752091745619968
-0.5511787482593007
-0.3160336154154241
-0.5552178401436461
0.3593721747065678
0.33797668765301025
0.6819232802519921
-1.2075896280941492
0.8155099293656101
0.3699017675702604
-0.01970738457161001
0.11551160188884593
0.33049657350804656
0.10619045555153316
-1.4959318461828368
-0.3251751121075902
-2.0855219110637435
0.12577849424789564
0.1315503113560136
0.2584163600140254
-1.6651061620780152
-1.1666985344365217
-2.221559187594781
0.16867671899659228
0.5107364752239574
-0.33316412963870967
0.8561643983372851
1.497799153205813
0.46870193514556163
-0.2122383513917541
-0.6230531471235882
0.9431151048869166
-1.1848298275708509
0.8842420938409488
1.012231390787413
-0.7146479815705555
1.2586796327302932
-0.5699655401120609
0.4232283688238907
0.06672497459899035
0.6249042003335459
-0.7385011368992704
0.3159234133757142
-1.2827337811312256
1.5873319241453308
-1.0246102411538631
0.12197967214492617
0.8372116957828668
-0.5569556669435236
0.4383064642272541
0.45935846248246176
-1.2756752518614554
0.22403967671790576
0.45464979724475224
0.3651932370841786
-0.5100760571194687
-0.3883243708229674
-1.992629139566851
1.7023704058753408
-0.7883050915555165
-1.7910957188388648
-1.7324287765894528
-0.006986228367051555
-1.1957751935619263
-0.9881628052106222
0.2267637321533476
-1.444448741503533
0.39575097406671395
-1.09939087512711
0.811613711769775
-0.8286748554161442
1.1145101108374313
-1.099127658396161
-0.06891872137415506
-1.687813136658144
-1.6018682451309858
0.058014610810906087
0.1137950661728728
0.33507741457995927
1.409263234854433
0.5213269510935232
-1.0998537090687626
0.5282725094537148
-0.6985478029263313
-0.9163908422135236
-1.6118669089645596
-1.0128417049229943
-1.0976320378010238
-0.7765725163475348
0.6633455122601644
-1.270810320949845
-0.34995959453064657
1.36108435393609
-1.2615209900122586
-0.8368124768315464
-1.3676348714391355
-1.390894133646356
-2.1054087985679963
0.6187515733712489
1.1363810058394899
-0.5797863559267318
-0.24763215100765534
1.3224535122939185
-0.6984942092552306
0.34543855425711184
-0.7566098782673458
-1.5675179245605122
0.28967639547220103
-0.4426995027482689
-0.8232302685168718
1.1571875460493668
1.055151112719609
-2.53616716180292
-0.015409464116926314
-0.5532478461579377
0.6597754669903825
0.5611879315953966
-1.0780832427203233
-0.2552519437063802
-0.21922537604160602
1.1320253037350112
-0.5773438327923112
1.3228305777337086
-1.2164610659669348
2.374159812626798
0.8559286382970386
0.7358076194868506
1.2870265575838047
0.8033114260767246
-0.5356381087037063
0.6871314087567083
-0.8403582737735853
1.0213606318761679
-3.155200814915381
-1.3407713197183124
0.6905517198473728
2.027076608924277
1.9597397291065186
-1.2297441170808443
-0.7736860426271712
-1.3375967069317305
0.42442419726339536
-0.27050267719177423
1.6763618581378232
2.2543830869080814
-0.9852671880237872
0.11242602428243487
0.2661893038496233
-0.5203098795107888
1.92835610470589
0.2879748004221293
1.7218788351328926
-0.5853217426905206
0.24235553452705588
-0.9850301243168131
1.0069442911364588
1.1904315289823193
1.4076011413046938
-0.34131868478854493
-1.3207201769442882
0.38147652859718156
-1.3492262873493956
-0.027012424171531612
-0.5095688972874904
-1.186952282676118
0.48276472418109734
0.0013901946882835781
0.07718493869707194
-1.0046403504896502
-0.7057848420065516
0.9707521772085439
0.37448998331825417
1.4648482874034796
0.29153573308617037
0.4320535144976123
0.1777022292426201
-0.43577188598189576
-1.8238781461878235
-0.23518903361805668
-0.8377372181541459
0.4365965656881124
0.7494764772216505
1.8516899586652418
-0.21031978122252934
0.2582854394740905
-0.07284707142202312
0.27847450144259733
-0.2906865964086811
0.7450047082314801
0.3807926901607206
0.11497214609541045
0.9991972514736491
-1.0228077081612863
0.4538868565501983
1.0681397439416922
0.7793005533375587
1.7988878971675026
-1.1975451300283346
0.09783952883054259
0.6724274641037741
-0.19332195291283188
-0.6109916070612528
-1.1083926379124738
-1.6212617173261281
0.25562942361818547
1.062786619330543
1.8780184973053826
1.915452721641766
1.3008506923049468
-1.3102080342748978
1.4654985417299016
0.025188747233764696
1.263776135915845
0.8208605245931281
-2.7396540988510885
-0.42089871576090493
0.09412842051360495
0.3520806668942371
0.13428704457850413
0.30762819933577784
-0.48849139824740256
0.36326823956374543
1.341969850775033
0.2942059327443668
0.5166817467055581
-0.08326516259570552
-1.006132946049755
0.6456687301561929
-1.9862947961131667
0.4165001577424499
-0.46781321178543606
1.1426779273866636
-1.4740988207574077
-0.4376305264104949
0.43562662667487173
0.016235303502953467
0.8603020978405946
3.385221711529282
0.5458349842133035
1.328112598568963
-0.5507697551845203
0.39609318228758367
3.205349292364374
0.6386180561190775
0.47737420299601274
0.33551819411493367
1.4789975848333945
0.5865517826377893
-0.34284048964401675
-0.9558619022211692
-2.2091117768640403
-0.2583242547845937
1.1332560418722828
0.3101294511627402
1.5058625296239145
1.3435070590833038
-1.2512530163374957
0.9793036028564555
-0.3013239079445992
0.013168378214663774
1.8906149538735817
-1.2502484609902154
-1.0834552612296615
-0.9597586798902451
-0.09649291922581194
0.7278513498006725
-0.3122011354686844
0.712609286056225
-0.08546760341775962
-0.15404789704339059
0.7909232807845206
1.4240296686869207
-2.2718896579907435
-0.7933370509572981
-1.5150326121297906
1.337368674461203
1.2713246846837043
-0.394572647071128
1.0108506402740258
1.440099979218523
-0.19126635452283447
1.2730880950871772
-0.6575905495602672
1.0977839336105983
-0.35731572729243144
1.6998820466707474
0.4978415777070728
-0.28521591159149556
-0.19703940331532127
-0.09414200795668798
-0.13579826809817463
1.5374774642751665
-0.0711058535165063
-0.7029771368637706
0.8972406520041593
-0.29229384515913664
-0.5073691061514294
2.1008738639847353
0.0956428642113955
0.8169580272574792
-0.3806111554353711
0.14065896272359052
0.1513612871904058
0.31941693194625925
-0.3542411564224315
0.06337011066372367
-0.5474644901254638
1.7816451697613374
-0.8441859848976989
2.143500412286498
-0.7959247448657327
0.8874652837892704
-1.0712946895233606
-0.11890076545879201
-1.0574913970029947
-0.7016017243694846
-0.9962223092262852
-0.08211306647748526
0.7556809903094899
-0.8131839208030823
-1.3401805706884669
2.1346504532422013
0.6912813689144972
0.001286761385371038
0.7468177793285091
-0.12264918980067413
0.2436425101731873
-0.6172294127715754
-1.2626093187207907
0.6289189502960244
1.290781366618742
1.2314648698433335
0.4666142258526786
0.3694383885494355
0.5283477126536458
0.4372651307771505
0.9712835237314723
-1.07746545112403
1.7504571474758244
0.11419203566164184
1.1556305075300366
0.25412095149397634
3.902208215669367
-1.026539953204341
1.3190714247591258
2.7643571783534227
2.2350056589028537
-1.069276790827011
-0.9191185608712393
-0.5652379878825304
0.6151259798896074
-1.423010864843355
-0.04753913021160172
-0.5124045400719883
-0.05784576111180134
1.2398898152872175
-0.9647884018023152
-0.25393438867970114
0.4799916869892366
1.5940739444768175
0.1431353236134291
0.03844769146751013
2.547902849754163
0.5451682426994311
0.586212119795273
1.5587812406813661
0.0031660216271263975
-0.9389396573197707
0.8888552014527272
-0.3809601619801255
0.522144008046092
0.3131911172303195
-2.5805038433064977
0.12152738684255432
-1.3324842306288769
0.34268819934191513
0.530389657625988
-0.9219656727857906
0.9490781849943927
0.21438777329843156
-0.789976742892697
-0.3586006930688058
1.658543710282929
0.43695258093289346
0.43790909568740966
-0.11440125921567981
-0.24023704865925669
0.8344700897297407
-1.271607086689733
1.4397586915933307
-0.7803356444568872
-1.211185244211161
-0.7351211503971635
1.1751474734497516
-0.8778537900454525
0.8450349338855274
-2.157413569644609
0.7130978308367235
0.27729412929450575
-0.39115133828439147
0.22748074426072895
-0.37031310315506116
-0.5850700901530834
-0.8607861708230404
-0.8524107070818572
-1.9012818061237278
1.0282557224967293
-1.3881897941846393
0.4493835958678013
-0.6912226442174563
0.3772658154763807
-0.27157109647754607
-0.3594540260331334
-0.6369204701439759
0.5809154350217947
0.5890121057365827
0.542032998212476
2.2122471796771577
1.0571370871726176
0.21887558926624803
-1.213154193881501
-0.4951322105606643
0.9953017320795104
-0.9640407776298774
0.611439545934191
0.37481380590055524
-0.06680469706863425
0.7053201095991952
-0.36648744639559505
-0.5989867027961214
0.26476245697376677
0.7685866320499491
0.9990368457809001
0.29030804777659935
0.9907153482541331
-1.8133920289113121
-0.6963847751270602
-1.3819590506720425
-0.84167107737003
-1.3790331147696375
-1.0446040089105413
-0.0820291267556744
1.7647391037557494
0.30740808711822726
-0.11977011256320108
-0.2886798693064059
-1.1600402025884708
0.18333415227416247
-0.9574740886220915
1.4906476340596762
-0.6250060489842465
-0.4003435073185279
-0.2385513260908912
0.18152311117741227
-1.6195882941205904
1.7577576887174726
0.11258970251225514
-0.1696958831152841
0.16773811133390057
0.4954496069939152
-1.2636305307800213
0.9673523021909802
0.6267785034190843
0.5336858267023588
1.0239254209061348
-1.6228703246613414
-0.8817856361984127
2.0689147646268675
-1.2178993935468847
-0.8377749187810524
-0.12164831543643785
-0.44838854169920006
0.9700723303415414
-0.06782883977983488
-0.5050762033251011
0.0022032744363236923
-0.3665581979308034
-0.4566056504238252
-0.11947518493555286
-0.3933985848925244
1.0297676954644595
0.4332745342713165
1.062915880886774
-1.2837364142045793
0.668448457148282
-0.2298889091866352
-0.37973473410121966
1.3748117473389116
1.4796634754473783
-0.06480935908119537
-1.4350457226502196
0.9553084637660266
0.46983200153370686
0.1500548012956859
-1.4938895195094766
-0.7804067464559421
-0.25727717273953915
0.8472007177775127
1.6309963980925493
-0.47775024545401074
0.7115274724510403
0.14490356466985924
0.6122622898840661
0.1507952754213523
0.3891804392537231
0.6552527825470709
-1.0976200874516993
0.8230112157720193
-0.2699132139813008
0.20284590397826402
-0.29377938914810736
1.8139575310997604
0.3783150927047524
1.3239149881985492
-0.5928031947802177
-0.5553633663194957
-0.7361076402648855
0.5776524037977986
0.05801660047298649
-0.12323143852454935
0.6407509301061504
-0.8637721247269079
0.14846674990341976
0.12480313386696504
0.07861779223930891
0.11071047956474761
1.7620744061496827
-0.19228259254502494
1.4879037328008933
-0.8566515223521489
0.9272174418999775
-0.5453655654509556
-0.5166123614752741
-1.5948422575514145
0.6412688872984424
-0.6787632886495806
-0.4199304311232343
-0.21450524087128814
0.0045788281602933
1.0977900139148729
-0.20499218342857628
1.265875870068101
1.485516951261654
1.990761008292797
0.22425556704409408
-0.2957155207172685
-0.08688767005557185
-0.2638027544804056
-0.36182733792032756
0.9040767586443769
0.10720728479458043
-0.26504864175312726
0.4327483132260146
-0.005003745593438658
1.0956029432324903
-1.3136193170412136
0.021298602375719487
0.9227920707610764
0.3011549674445055
0.6133440706841743
1.166633348007218
-0.21784067835630366
0.670851606209316
1.0112186433888717
-2.357887406075238
-2.0522704386188417
0.11268830398791246
-0.6006179393769712
0.38665088353556504
-0.5092086436527099
0.7954561469996244
-0.3333155704937424
2.8334429211527323E-6
1.656664642825241
-0.19023599939336533
-0.9192512971633289
0.8430084922209677
-0.632960965439979
0.15817297412034292
1.1926117951451465
-1.5276842768810912
0.3536455834106736
0.015332798824985838
0.37935256057770655
0.4837076316189766
-0.8559312358985518
-0.7082204111790747
0.4381106221623292
0.6550993304890879
1.0575550708695567
-0.7152145909297758
0.5120840694528812
0.17390623614781064
-1.2992340949629195
-0.4606493883452237
1.4587621099718473
0.06105994825951227
-0.018535315452041096
1.5736705157428825
-0.5513312178841867
1.6847106475276927
-1.1847211304513772
2.4642829749827375
0.699854295282969
0.463173629202929
-0.04120207283074501
-0.10982736745563723
0.8177707927256976
0.4485496399162431
1.489854038163333
-0.9173221891848188
-0.6922505775880521
0.7053439689660204
-2.0139071296366455
-0.7127788364138488
0.16790975675999237
0.3735709899065005
0.4874779992104296
-0.5003918731586747
-1.8014188446251829
-0.5769757275799781
1.2370630896464279
0.2586640851741811
0.7663756876736494
0.6908985187969168
0.06934853087901371
-1.3943713907308186
1.5155695010788697
-2.218569944424155
-0.06350321538836856
-1.105433253123453
-0.11452192004226835
-1.462090179074126
0.8943938794852522
2.8256854854970843
0.855337199688714
-0.9703159390267807
-0.8909582756442416
1.0282743039003661
0.6831638000776492
0.0932050723669629
-1.317101099745221
